16 300
pear -0.06093798 -0.0053474614 -0.017542752 0.06647779 -0.026621895 0.025390824 0.07417198 -0.07786519 0.00467422 0.08371278 -0.022774799 -0.012695412 -0.047396205 0.021851497 -0.009694678 0.053551555 -0.08740599 0.030622872 -0.027391313 -0.043702994 -0.055398162 0.05816807 0.010079388 -0.070786536 -0.022005381 0.0030969111 -0.07571082 0.05078165 0.006463119 0.032007825 -0.011695167 -0.017388867 0.070171006 -0.01746581 -0.05016611 -0.0021736084 0.019697124 -0.037239876 0.04801174 0.05201272 -0.001750428 -0.059706908 -0.11818274 -0.036932107 0.06063021 -0.13972647 0.033854432 -0.056629233 0.025698591 -0.01015633 -0.04431853 0.015696146 -0.022928683 0.020928195 -0.03785541 -0.033854432 0.012695412 -0.03093064 -0.067708865 -0.10710311 -0.035547152 0.016850274 -0.111411855 -0.020928195 -0.052628253 -0.111411855 0.018389111 -0.099101156 0.099101156 0.05909137 0.072940916 -0.0071171247 0.031238407 0.0044049234 -0.08863706 0.05909137 -0.06432342 -0.017619694 0.047088437 0.009463852 -0.056629233 -0.033085015 -0.022313148 -0.06340012 0.029853454 0.030776756 0.022928683 0.11633614 -0.037701525 -0.0137725985 -0.06586226 -0.0806351 -0.006847828 0.023236452 0.026160242 -0.10464097 -0.049858347 -0.006847828 0.015926972 -0.1157206 -0.09294581 -0.082481705 -0.048319507 0.0578603 0.01831217 -0.008732905 0.01669639 0.0692477 -0.08986813 -0.04924281 -0.07940403 -0.116951674 0.027699081 -0.022159265 0.025544707 -0.0009377293 0.046472903 -0.047396205 -0.024929173 -0.033546664 0.0068862992 0.06093798 -0.010464097 0.04924281 0.06093798 0.07140207 -0.08001956 0.0787885 0.025698591 0.1157206 -0.022313148 0.01585003 -0.01954324 0.014849785 -0.03877871 0.09171473 -0.039702017 0.029545685 0.025852475 0.00015388378 -0.044934064 -0.051089413 -0.11264293 -0.009040672 0.044626296 0.009656208 -0.011310458 0.026775777 -0.16496341 -0.00082712533 0.076326355 0.007655718 -0.06647779 0.1280313 -0.009156085 -0.036778223 -0.06032244 -0.036932107 -0.045857366 -0.0029237918 -0.0578603 -0.005462874 0.10894971 0.022313148 0.009425381 -0.03877871 0.11633614 -0.017696634 0.0044626296 -0.021697612 -0.06955547 0.055090394 0.004481865 0.006963241 -0.12249149 -0.022774799 0.12495363 0.056936998 -0.04062532 0.028006848 -0.08125064 -0.08617492 -0.07601859 0.07232538 -0.03093064 -0.003789388 -0.04308746 0.021389846 0.018773822 -0.011464342 0.009733149 0.026314126 -0.062476814 -0.0050012227 0.08555938 0.10648758 0.027545197 -0.017696634 0.016157797 -0.019389356 -0.025698591 -0.08125064 -0.048319507 0.071094304 -0.017542752 -0.003943272 0.0030199692 -0.03216171 0.020928195 -0.03585492 -0.11510507 -0.06463119 -0.0170811 0.055705927 -0.03139229 -0.012541528 -0.04000978 0.0016542507 0.15326825 0.10956525 0.028468499 0.055090394 -0.038932595 0.03616269 -0.039702017 -0.019697124 0.036932107 0.00044962918 -0.0015965442 0.10402544 -0.03739376 -0.07817296 -0.06555449 0.08001956 -0.032777246 -0.11264293 -0.05939914 -0.06678556 0.09479241 -0.070786536 0.08432831 0.011695167 -0.007886544 -0.001207026 0.062476814 -0.04431853 -0.021235961 0.013080121 -0.010541039 0.105256505 -0.041240852 -0.0683244 0.10587204 -0.09294581 0.042471923 0.009194556 -0.033854432 -0.12556916 -0.027237428 -0.0006395795 0.02077431 0.06032244 -0.08740599 0.04678067 0.0060784095 -0.073864214 -0.12556916 0.06309235 -0.07232538 0.010079388 -0.0053474614 0.06032244 -0.019697124 -0.0341622 0.03262336 -0.04031755 0.042471923 -0.016157797 -0.07571082 0.10771865 -0.08863706 0.05170495 0.0787885 -0.024775289 0.029545685 -0.027083546 -0.042164154 -0.010541039 -0.043702994 0.13911094 -0.02893015 -0.09479241 0.07324868 -0.046165135 0.11510507 -0.022620916 -0.0055013453 0.004154862 0.022620916 0.045241833
greeley -0.053048868 0.035784442 0.018049171 0.093541786 -0.1588327 -0.0035313594 -0.04143462 0.06403532 -0.05022378 -0.06560481 -0.005297039 -0.0034332662 -0.016087305 -0.0062387353 0.15255474 0.025582738 0.010515604 0.05210717 -0.012555945 -0.019147815 -0.07408007 -0.023228498 -0.043631908 0.11928148 -0.033116303 0.05493226 -0.0147532355 0.018127644 -0.07439397 -0.042690214 0.0337441 -0.06623261 0.060896333 -0.03201766 0.06623261 0.034058 0.07251058 -0.071568884 0.041748516 0.02244375 0.036098342 -0.03170376 0.03170376 0.051165476 -0.0684299 0.11865368 0.034528848 0.018598493 0.07941635 0.00910306 -0.022129852 -0.12807064 0.0033155542 -0.023856295 0.037667833 -0.01349764 -0.025425788 0.06623261 -0.04112072 -0.062465824 -0.035313595 0.008906873 -0.015381033 0.0050616153 0.03641224 -0.0916584 0.012163571 0.009299247 -0.034685798 0.053048868 -0.035784442 -0.039394278 0.012555945 0.008749924 -0.0023150023 -0.01365459 0.07251058 0.05869904 0.009652383 -0.013890014 -0.07031329 -0.033273254 0.051793274 -0.032802407 -0.060582433 -0.015224083 -0.07470787 0.16824967 0.078474656 -0.058071245 -0.020246461 -0.046143096 0.10923672 -0.025896637 -0.048026487 0.0014713998 0.07031329 -0.007768991 -0.021502055 0.026210535 -0.032802407 -0.07031329 0.04017902 -0.023228498 0.030134268 -0.045201402 0.05681565 0.02934952 -0.10798112 -0.017185949 -0.017813746 0.03170376 0.06999939 -0.023228498 -0.021345107 -0.055560056 -0.035156645 -0.06152413 0.025582738 0.0674882 -0.09856417 -0.032331556 -0.031075964 -0.102958746 0.078788556 -0.065918714 -0.032959357 0.040492922 -0.048026487 0.005532463 -0.028093927 -0.03421495 0.0455153 0.048340388 0.0056894124 -0.026524434 -0.123676054 -0.06121023 -0.06403532 0.056187853 -0.053676665 -0.037981734 0.0022267182 -0.18833917 0.02511189 0.10798112 0.021188157 -0.04959598 -0.017578322 0.10484214 0.025425788 0.0047673355 0.019069342 0.07062719 -0.017892221 -0.0229146 0.05493226 0.030919014 -0.08475263 0.06717431 -0.050851576 -0.014517811 0.08600822 -0.051479373 0.0034136474 0.04771259 0.046456996 -0.01263442 0.05869904 0.123676054 -0.043945808 -0.048026487 -0.07564957 0.030448167 -0.018598493 -0.0073766178 0.025582738 0.039080378 -0.027936976 0.022129852 -0.12304826 -0.13309301 0.07031329 -0.1833168 0.018833917 -0.05932684 -0.022286803 -0.02479799 -0.0016675864 0.1349764 -0.04331801 -0.02511189 0.012791369 -0.030919014 0.008632212 -0.011221875 0.0011918339 -0.010829503 -0.004786954 -0.057443447 0.007808228 -0.058385145 0.010358655 0.019540189 -0.08412483 -0.0071019563 -0.004021826 0.0141254375 -0.0061994977 0.040492922 0.0056894124 -0.071882784 -0.042062417 -0.0910306 -0.032959357 0.021345107 -0.026524434 0.07973025 -0.078788556 -0.028878674 0.0051008523 0.0448875 0.106097735 -0.12869844 0.016165778 -0.0014517811 0.0072196685 0.053676665 -0.042690214 -0.028564773 -0.10986452 0.12493165 -0.0229146 0.10358655 -0.021345107 0.029035622 0.013419166 -0.0696855 -0.060268536 0.017578322 -0.018520018 -0.012085097 -0.035941392 0.057443447 -0.06434922 0.0051008523 -0.0458292 -0.04331801 -0.038138684 -0.0006719392 0.071568884 0.061838027 -0.02982037 0.087891616 0.118025884 0.0019716758 0.057443447 0.04017902 -0.015773406 -0.1833168 0.0147532355 0.006984244 -0.0044534365 0.05493226 0.0916584 0.028093927 0.021972904 0.038923427 -0.033587154 0.11928148 -0.080985844 -0.053676665 -0.009770094 -0.017264424 -0.027623078 0.043631908 -0.018441545 -0.06999939 0.026681382 -0.0046496233 -0.031389862 -0.10044756 0.07408007 0.10170315 -0.03860953 -0.05399056 0.08851941 0.08914721 0.062779725 0.008043652 0.02275765 0.05869904 0.03170376 0.06623261 0.027780028 -0.012085097 0.047084793 0.024641043 0.024641043 0.017264424
red 0.03893656 -0.034045033 0.108787574 0.08883014 -0.019272618 -0.07004667 -0.037958253 -0.15105037 -0.014870244 0.063785516 0.0036197305 0.00621224 -0.00973414 -0.038153913 -0.140876 -0.08335163 -0.11817931 0.06730742 -0.11191815 -0.12991898 0.037958253 0.024359807 -0.02504462 -0.11817931 0.013304954 -0.008853665 0.04774131 0.006261155 0.09939584 0.012913632 0.04617602 0.05674172 0.07982973 -0.045197714 -0.0033262386 0.014772413 0.016239872 -0.012326649 -0.0528285 -0.014087599 0.030523133 -0.030718792 0.006358986 -0.054002464 0.076307826 -0.054393787 0.019076956 -0.06769874 0.035219 0.0528285 -0.08452559 0.055567753 0.035610322 -0.022794519 -0.06730742 0.014576752 -0.0070437994 -0.029153503 0.0052339346 0.012620141 -0.06691609 -0.009440648 -0.06769874 -0.028762182 -0.0387409 0.07552519 -0.045393374 0.0011189369 0.00060532655 0.055567753 0.10096113 0.05361114 0.07709047 -0.079047084 0.012913632 0.00074595795 0.104091704 0.07239461 -0.07826444 0.140876 0.057915688 -0.10096113 -0.004793697 -0.057915688 0.017316008 -0.0014124286 -0.099004515 0.03228408 0.047349986 -0.010614615 0.011690751 0.043828085 -0.0017120346 0.063785516 -0.04989358 0.007484037 0.030914454 0.030718792 0.0075329524 0.068872705 -0.005600799 -0.020055262 0.050480563 -0.003044976 -0.0069948845 -0.07317725 0.14400657 0.0067013926 -0.039327882 -0.020642245 -0.0031550352 -0.116614014 0.0021889585 0.079047084 0.09078675 0.010957021 0.036784288 0.06261155 -0.018979127 0.09939584 -0.017218176 -0.048915274 -0.037762593 -0.03600164 0.0070437994 0.014968074 0.009636309 0.04969792 0.09039543 -0.022011874 -0.021131398 -0.043632425 0.012130988 -0.04637168 0.0034729845 0.036979947 -0.018881297 0.021033568 0.04461073 -0.015261566 -0.038349576 -0.061828908 -0.01770733 -0.011054852 0.09587394 0.07317725 0.0068481383 -0.024164146 -0.015065905 -0.0633942 0.01604421 0.014968074 -0.07435122 0.034436353 -0.030718792 0.01790299 -0.046763003 -0.105657 0.0035463574 -0.015261566 -0.07591651 0.030914454 0.17844293 0.022011874 -0.04128449 -0.012815802 0.09274336 -0.034045033 -0.0001291669 -0.043828085 -0.07669915 -0.018489974 -0.027979538 0.061437584 -0.08922146 0.009685225 -0.030523133 0.007484037 0.007826444 -0.10252642 -0.016631193 -0.043828085 -0.06809007 0.038153913 -0.00049832434 -0.048719615 0.0048181545 -0.018489974 -0.055959076 0.009342818 -0.014381091 -0.086482204 -0.06261155 -0.073959894 0.061046265 0.08256898 0.020544415 -0.027001232 0.014968074 0.006407901 0.059872296 -0.036784288 0.012620141 -0.045197714 0.19800903 -0.022696687 -0.03013181 0.01418543 -0.02132706 -0.068872705 -0.04480639 -0.011837496 -0.0040844255 0.02132706 0.0047447816 0.07004667 0.10252642 -0.029740488 -0.09548262 0.03150144 -0.07004667 0.01956611 -0.024261976 0.0528285 -0.099004515 -0.02318584 0.018979127 0.02299018 0.047154326 -0.04265412 0.052437175 -0.027392553 0.012620141 0.048132632 -0.08961278 -0.093917325 -0.033458047 -0.06026362 0.073959894 -0.030523133 0.14322393 -0.049502257 -0.05674172 0.04989358 -0.0198596 -0.03717561 0.031110115 -0.035219 0.06026362 -0.022305366 0.0033262386 -0.0093917325 0.086090885 0.01252231 -0.011348343 -0.11191815 -0.059089653 -0.024066316 0.0050871884 0.03541466 -0.0019932974 0.014968074 0.061046265 0.013500616 0.041675813 -0.022696687 -0.07239461 0.039523542 0.045589037 -0.06535081 0.09078675 0.022598857 -0.07787312 -0.009293903 0.032479744 0.022109704 -0.046567343 -0.176095 -0.05165453 0.091178074 0.06417684 0.140876 0.13539748 -0.024164146 -0.003093891 0.046958663 0.01575072 -0.023381501 -0.040697508 -0.14948508 0.03580598 -0.058307007 -0.04969792 0.006554647 0.054785106 -0.010174377 0.019272618 0.018489974 0.059089653 0.057524364
table -0.053929195 -0.009883982 0.043908566 0.079800636 -0.015759714 -0.009382951 0.04554831 -0.07615677 0.013664492 0.099113114 -0.03042627 -0.062310085 0.07870747 -0.030244077 -0.039171543 0.0779787 0.03898935 -0.018674806 0.077614315 -0.020770028 0.078343086 0.052107263 -0.05465797 -0.026053632 0.022774154 0.05538674 -0.069962196 0.016124101 -0.04281541 -0.024049506 -0.083808884 0.057937447 0.0024709955 0.053200424 -0.016306294 -0.041540056 -0.043908566 0.07652116 -0.03279478 -0.078343086 -0.02714679 -0.0564799 0.024778279 -0.026418017 0.0725129 -0.017672744 -0.0013152073 0.009474047 0.050649717 0.03261259 -0.08963907 -0.006558956 -0.03261259 -0.1450258 -0.04919217 -0.035345487 0.078343086 -0.0019358031 0.062310085 0.013391202 -0.115874894 -0.046641465 -0.15449986 -0.0027556727 0.037531804 -0.02040564 -0.01721726 -0.024231698 0.053929195 -0.049920943 0.09692679 -0.079800636 0.099113114 0.06959781 -0.01831042 -0.062310085 -0.028604336 0.01803713 0.035892066 0.00019642708 0.0457305 -0.13336544 0.014119975 0.041357864 0.09692679 -0.014028879 0.046459273 0.025324859 0.03170162 -0.025507051 0.07324168 -0.0067411494 -0.08963907 -0.08089379 -0.052107263 -0.069962196 0.045912694 -0.09000345 -0.05538674 -0.07870747 -0.076885544 -0.06631833 -0.036803033 -0.050285332 -0.041904442 -0.0031883814 0.030244077 -0.02987969 0.023502927 -0.026964597 -0.057208672 -0.015213135 0.08708836 -0.077614315 -0.03388794 -0.015668618 0.09328293 -0.04737024 -0.024231698 0.0063312147 -0.022500863 -0.0024140603 0.059030607 0.041904442 -0.13117912 -0.0725129 -0.037531804 -0.049556557 -0.029333109 -0.011751464 0.118061215 -0.028057758 -0.05975938 -0.030790655 -0.07870747 0.09328293 0.00079140184 -0.005830183 -0.044819534 0.07214852 -0.013300106 -0.04809901 0.07579238 -0.03789619 0.02122551 0.13336544 -0.12024753 -0.1238914 0.030244077 0.08526643 0.02286525 0.03388794 -0.009565145 0.03734961 0.006376763 -0.021863187 -0.0037577352 -0.08271573 0.020861125 0.020587835 -0.0779787 -0.025871439 0.015122038 -0.07178413 0.053929195 -0.051014103 -0.02714679 0.025324859 -0.05757306 -0.0028581563 -0.099113114 -0.0564799 0.039718125 -0.014302168 0.0070599876 -0.07652116 -0.027511178 0.014757652 0.027511178 0.041357864 -0.09546925 0.06486079 0.063038856 0.02231867 0.032430395 0.01639739 -0.06668272 0.08271573 -0.008973016 -0.042633217 0.103485756 -0.011022691 -0.00040424123 -0.023229636 0.032066006 0.05247165 -0.08162256 -0.014119975 -0.050285332 -0.14138195 -0.12607771 0.06558956 -0.056844287 -0.02878653 0.0055796676 0.026235824 0.021316608 0.079800636 -0.06886904 0.01129598 -0.056115516 0.017308356 -0.08052941 -0.013482299 -0.01667068 0.018401517 -0.026235824 0.10858716 0.029150916 0.06085254 -0.09546925 0.08854591 -0.058666218 0.031883813 -0.052836034 -0.0034844454 -0.011204883 -0.017490549 0.10567207 0.025689244 0.08417327 -0.06085254 0.034252327 0.031155042 -0.04737024 -0.04062909 0.020952221 0.13700931 0.050285332 0.04172225 -0.022683056 -0.018765902 0.019039193 0.006968891 0.00017792308 0.04919217 0.08235134 -0.042268828 -0.061216924 -0.017581647 -0.023320733 0.10275698 -0.006513408 -0.09474048 -0.091461 -0.11150225 -0.11004471 -0.034798905 -0.03388794 0.011933656 0.0092463065 -0.047734626 -0.060488153 -0.058301833 -0.07324168 0.077614315 -0.08235134 0.02286525 -0.09619802 -0.08162256 0.051014103 0.10421453 -0.018948095 0.008198695 -0.00915521 0.15377109 0.055751126 -0.088181525 -0.031519428 -0.012480236 0.01913029 0.0067411494 0.009975079 0.114417344 0.0012639655 0.015941907 -0.050285332 0.09000345 -0.0030061882 0.0011273206 -0.011933656 -0.026782405 -0.045912694 -0.0066045043 0.0015486424 -0.028604336 0.026053632 -0.03552768 -0.03662084 -0.004577605
banana -0.02811606 0.015503999 -0.022814175 0.099611185 -0.06169467 -0.010523439 0.009720123 -0.067478545 -0.029722692 0.09832588 0.0694065 -0.02265351 0.015664661 0.019199252 -0.09061404 0.079688944 -0.10603771 0.01558433 -0.047556307 0.030847335 0.0022191606 0.07165579 0.07615436 0.06169467 0.027955396 -0.017753284 -0.08740078 0.0073503414 0.07390507 0.13559975 -0.007591336 -0.055268142 0.0033538444 0.0694065 0.0037555024 0.08225956 0.028437387 -0.07133446 0.029401366 0.049484264 -0.06683589 -0.07583303 0.046913654 0.044343043 -0.037434526 -0.059445385 0.011808746 -0.055910792 0.051090896 0.078724965 -0.07583303 -0.032775294 0.06008804 -0.05976671 -0.04819896 -0.0231355 0.030847335 -0.08804344 0.0071495124 -0.047877632 -0.007832331 0.050448246 -0.032293305 -0.005583046 0.016467977 -0.10153914 -0.09896853 -0.10539506 0.039041158 -0.042415086 0.059124056 0.028758712 -0.0049002278 -0.031971976 -0.185084 0.008233989 -0.06876385 -0.07679701 -0.032453965 -0.007310176 -0.03727386 0.038719833 -0.051412225 -0.034060597 0.020484557 -0.06715722 0.009077471 0.08483017 -0.06233732 -0.020725552 -0.09704057 0.053982835 7.280051e-05 -0.046271 -0.008073326 -0.022171522 -0.015664661 0.008474984 0.09639792 -0.014540019 -0.07454772 -0.010121781 0.01204974 0.03309662 -0.02667009 0.025545448 0.06394395 -0.03614922 -0.08547282 -0.04659233 -0.08804344 -0.078724965 -0.07711834 0.021689532 -0.09768323 -0.004036663 0.047556307 -0.078403644 0.007832331 0.0092783 -0.016869636 -0.035024576 -0.0401658 -0.07679701 -0.057838753 0.040808454 0.006386362 -0.035827894 0.039362483 0.12274668 -0.08161691 -0.04562835 -0.04402172 -0.08740078 -0.089328736 0.08804344 -0.017190963 0.015423668 0.046913654 -0.08483017 -0.04819896 -0.13238648 -0.026188102 0.011166092 0.035024576 0.028437387 0.03309662 0.021046879 -0.055910792 0.08804344 0.015985988 -0.062658645 -0.10603771 0.033899937 0.013817036 -0.002098663 -0.06458661 -0.03422126 0.034381926 -0.055589467 -0.1034671 0.000712943 0.042093758 0.030204682 -0.041451104 -0.00069788075 0.06394395 -0.046913654 -0.051412225 -0.017913947 -0.03004402 0.050126918 -0.008394652 -0.078403644 -0.13624239 -0.06555059 0.0571961 -0.02715208 0.02265351 0.088686086 -0.030204682 -0.02667009 -0.08065293 0.083544865 -0.0006476735 0.016628642 0.015343335 0.008675813 0.073583744 -0.06233732 0.03422126 -0.009238134 0.013174382 -0.068121195 0.13367178 0.14781015 -0.010925097 -0.07390507 -0.042415086 -0.009438963 0.06876385 -0.071977116 0.020002568 0.04112978 0.014379356 0.023617491 0.010362776 0.04064779 -0.0027111915 -0.014218694 -0.07615436 0.024260143 -0.049805593 0.050126918 0.06844252 -0.05366151 -0.072619766 -0.09768323 0.04819896 0.10410976 0.03116866 -0.0231355 -0.06779987 -0.010081616 -0.0401658 -0.08129558 0.03004402 0.040326465 0.13495709 0.040326465 0.012531729 -0.028437387 -0.01405803 0.01357604 -0.043057736 -0.036631208 -0.003815751 -0.05269753 0.08675813 0.017672952 0.010242279 -0.083544865 0.020163232 0.01654831 0.012130071 -0.09318466 -0.11953342 0.009157802 0.042415086 -0.061052017 -0.034060597 -0.04273641 0.12146138 -0.043379065 -0.013897367 -0.13110118 0.0035747562 -0.06426528 -0.04916294 -0.016307315 -0.02602744 0.08225956 -0.067478545 0.08740078 -0.0039362484 -0.04530702 -0.0571961 0.110536285 -0.042415086 -0.084187515 -0.06233732 0.053018857 0.073583744 -0.035827894 -0.002650943 0.06008804 -0.062658645 -0.005583046 -0.022492848 0.100253835 0.059124056 0.05430416 0.019279584 -0.03357861 0.02201086 -0.025063459 -0.10989363 0.020886216 -0.03213264 0.056553446 -0.058481406 -0.02715208 0.012692393 -0.09704057 0.0018175024 0.017913947 -0.03116866 0.041772433 0.03855917 0.058481406
sofa 0.073240526 -0.051299274 0.04048316 0.09456372 0.12732108 -0.010275306 0.03940155 -0.037701875 0.11557788 0.055007655 -0.04604573 -0.07169537 0.014601751 -0.0057943454 -0.10877918 -0.0074167624 -0.026422216 0.01050708 0.037856393 0.021168675 0.054698624 0.0077644233 0.017846584 0.0061420063 0.041410256 0.005060395 -0.018310132 0.06829602 -0.041410256 -0.08282051 -0.050372176 0.06767795 -0.0457367 0.037238326 -0.111251436 -0.11372369 0.015297072 0.038474455 -0.0720044 -0.012129497 -0.14524493 -0.044191543 0.060570225 -0.008691519 0.06582376 0.0457367 -0.050681207 -0.0049831374 0.05438959 -0.048517987 0.008575631 0.043264445 0.04944508 -0.044191543 0.008807405 -0.023795446 0.026885763 0.014292719 -0.0067986986 0.054080557 -0.03414801 0.04882702 -0.11743207 0.06767795 0.016842231 0.05438959 -0.099508226 -0.0457367 -0.0074940203 0.048517987 0.13597398 -0.0018638478 0.0021342507 0.051917337 -0.07138634 -0.03677478 0.012129497 -0.055316687 0.017846584 -0.10074435 0.025495121 0.0034959218 0.00060116337 0.029512534 -0.016842231 0.03909252 0.106306925 0.040792193 0.053153463 0.026731247 -0.025649637 -0.023177382 -0.005099024 -0.025031572 -0.033684462 -0.041719288 0.08900115 -0.038319938 0.03862897 -0.070768274 -0.0059488616 -0.08591083 0.09270953 -0.035384137 -0.097035974 -0.028276406 0.09579985 0.004770678 0.003225519 -0.046354763 -0.03677478 -0.018078359 0.101980485 -0.0788031 0.051608305 -0.06458764 -0.031984787 0.026576731 0.003225519 0.059025068 -0.025804153 -0.016764972 0.013442881 -0.015837878 -0.05624378 -0.044191543 -0.019700775 0.00011467976 -0.012670302 0.058407005 0.0070691016 0.038783487 -0.111251436 0.09209146 -0.025958668 0.10321661 -0.046663795 0.02966705 0.012670302 0.028585438 0.041410256 -0.0007484363 -0.0009222667 -0.038010906 0.010043533 0.04233735 -0.03414801 0.0262677 -0.010043533 0.056552812 0.11063337 0.09889016 0.03909252 -0.026731247 0.058407005 -0.007725794 -0.09579985 -0.055007655 -0.035075106 0.02178674 -0.050681207 0.04542767 0.09579985 -0.04017413 0.034611557 0.059025068 0.044191543 0.040792193 -0.031366725 0.0661328 -0.00089812354 -0.010198048 -0.08096632 0.020705128 -0.04913605 -0.06675086 0.11619594 -0.03862897 -0.01050708 0.13597398 -0.050372176 -0.031212209 0.029976081 -0.046663795 0.068914086 -0.0020859644 -0.04913605 0.060879257 0.06149732 -0.11063337 0.08034826 -0.11248756 -0.012052239 0.075094715 0.06829602 0.11001531 0.028739953 -0.026885763 -0.041410256 -0.04233735 -0.101362415 -0.0059488616 -0.11681401 0.018928196 0.069841176 -0.010816111 -9.7176e-05 0.073240526 -0.020396097 0.021477707 -0.1440088 0.046354763 -0.14091848 0.018541906 0.068914086 -0.09765404 -0.060261194 0.083438575 -0.06366054 0.06922311 -0.07694891 0.030130597 0.008498373 0.09579985 -0.059952162 0.030439628 0.050372176 0.003264148 0.016610457 -0.023486413 -0.031212209 -0.033993494 0.007648536 -0.056552812 -0.03569317 0.08652889 0.030594144 0.049754113 -0.025340604 0.0011830123 0.0661328 -0.085292764 -0.00047320488 -0.028585438 -0.022250287 0.07015021 0.045118637 0.023331897 -0.022250287 -0.079112135 0.01012079 0.03522962 0.041719288 0.0661328 -0.06582376 0.029203502 -0.124848835 0.08405664 0.044191543 -0.012129497 0.008884663 0.034920588 -0.037547357 -0.028739953 -0.023331897 0.10321661 -0.03337543 -0.03553865 -0.08220245 0.008112084 -0.08714696 0.13597398 0.00078223663 0.025958668 -0.0012940705 0.073240526 0.013983687 0.046972826 0.0010429822 -0.06366054 0.046354763 -0.007648536 0.058716036 -0.05284443 0.097035974 0.016224168 -0.069841176 -0.055625718 0.034302525 0.11619594 -0.09456372 0.05809797 -0.02812189 -0.015683362 0.07045924 -0.12299464 0.054080557 0.031984787 0.044191543 0.027349312
yellow -0.026136035 0.009408972 0.027181476 0.06760521 -0.016814182 -0.115695514 0.026484516 -0.1979369 -0.046696384 0.034848046 0.048090305 -0.019863386 -0.011064255 -0.04321158 -0.09687757 -0.06516585 -0.08154443 0.04495398 -0.1373013 -0.07283242 -0.02909812 0.056802318 0.01489754 -0.019689146 -0.04495398 -0.005749928 0.014636179 0.0446055 0.08502924 0.011935456 0.014026338 -0.039552532 0.05296903 -0.060984083 0.051226627 0.01481042 0.018208105 0.041469175 -0.07004457 0.016552823 0.056105353 -0.05262055 0.06969609 -0.080498986 -0.031885963 -0.035196528 -0.00757945 -0.050529666 -0.031885963 0.06865065 -0.07109001 0.027007235 0.079105064 -0.038507093 0.024742113 0.065862805 0.029272359 -0.063771926 0.0076230103 0.012371057 -0.04565094 -0.0033759044 -0.020124746 -0.0013775869 -0.028226918 0.058544718 -0.06028712 0.009670333 -0.1052411 0.107331984 0.089211 0.05157511 -0.0054232273 -0.10315022 -0.05331751 0.03153748 0.048438784 0.004508466 -0.01498466 0.11151375 0.047741823 -0.055756874 -0.0104544135 -0.08433227 0.016901303 -0.0155073805 -0.04565094 0.004312446 0.026136035 -0.02247699 0.02317395 -0.00090931624 -0.032060202 0.061681043 0.03711317 0.0062726485 0.018382344 -0.03571925 -0.05749928 0.0077972505 0.0588932 -0.047044862 0.063771926 -0.0056192474 -0.10942286 -0.02230275 0.14566484 -0.01568162 -0.13242258 -0.03223444 -0.013939219 -0.050181188 0.065862805 0.08677164 0.008755571 -0.024742113 -0.03066628 0.036241967 -0.019166425 0.12545297 0.009844573 -0.035196528 -0.08293835 0.032582924 -0.0056628077 0.030492041 -0.03833285 -0.024393633 0.039901014 0.047741823 -0.030492041 0.0056628077 0.1177864 -0.055059914 0.0294466 0.005466787 -0.051226627 0.0446055 0.00753589 0.0025809335 0.0071002897 -0.06028712 0.007971491 -0.005161867 0.08119595 0.048438784 -0.019863386 -0.03223444 -0.03885557 -0.1463618 -0.031885963 -0.027529957 -0.07457482 0.019253546 -0.0019384226 0.010410854 -0.05471143 -0.08607467 -0.028575398 -0.008755571 -0.07352938 0.019863386 0.1658767 0.014113459 -0.040597975 0.009975254 0.08816556 -0.05959016 -0.05959016 -0.02874964 -0.06934761 -0.011412735 -0.04390854 0.12057424 -0.034673806 0.019340666 -0.05401447 -0.0046391464 0.017946744 -0.06516585 0.011064255 0.020821707 -0.13311954 0.027529957 -0.003920405 -0.12614992 0.031014761 0.0034630245 -0.024045153 0.085377716 -0.021344429 -0.02979508 -0.09339277 -0.089211 0.07980203 0.079105064 0.005749928 -0.09896845 -0.023522431 0.016552823 0.0033976845 0.0011543415 -0.005837048 -0.031885963 0.12475601 -0.040597975 -0.085726194 -0.0117612155 -0.017249784 -0.068999134 0.00753589 -0.048438784 -0.056105353 0.009408972 0.09757453 0.055408392 0.108725905 -0.010193054 -0.11987728 0.05331751 -0.03136324 -0.00753589 0.016465701 -0.013939219 -0.08433227 -0.034325324 -0.00024638657 0.013155137 0.077362664 -0.07178698 -0.019602027 -0.027181476 0.047044862 0.008668452 -0.082241386 -0.07527178 0.0047698263 -0.017249784 0.14148307 -0.023870911 0.06690825 -0.10454414 -0.034848046 -0.027355716 -0.006141968 -0.025264833 -0.02247699 -0.02979508 0.0064033284 0.006621129 0.031711724 0.025439074 0.080847465 0.03728741 -0.02247699 -0.142877 -0.1303317 -0.039552532 0.010715774 0.04565094 0.027181476 0.0024502533 0.061681043 0.02282547 0.055756874 -0.0155073805 -0.10105933 0.09757453 0.016552823 -0.05924168 0.079105064 0.03136324 -0.041817654 0.03902981 0.055756874 0.08642316 -0.026136035 -0.11499856 -0.036241967 0.06690825 0.025613314 0.032757163 0.09130188 0.011935456 -0.027355716 0.0016661722 -0.0030927642 0.024916353 -0.13242258 -0.10315022 0.032931402 -0.06969609 -0.058544718 -0.0294466 0.07283242 -0.028052676 0.024742113 0.012980897 0.025787555 0.05401447
vail 0.0035097338 -0.00829926 -0.05305321 0.022027941 -0.07818368 0.0075624096 0.11107047 0.02637148 -0.0005550615 -0.09369632 -0.072599135 0.03226628 0.03567906 0.0067092148 0.07135812 0.017219026 -0.07446065 0.012797924 -0.040953357 0.003102527 -0.06670433 0.004052676 -0.03785083 0.03614444 0.00732972 0.10238339 -0.0010083213 0.019313231 0.022027941 -0.06732484 0.118516535 -0.05522498 0.030094512 0.03567906 0.067945346 -0.04219437 0.114172995 -0.06391206 0.05863776 0.00080956565 -0.03350729 -0.04560715 0.0039945035 -0.038161084 -0.021097185 -0.015435073 0.012642798 -0.0800452 0.12720361 0.074770905 -0.02978426 -0.116034515 -0.107347436 0.035213683 0.016210703 0.028698375 0.08252722 0.018382473 -0.068565845 -0.036454692 -0.00018663639 -0.02730224 -0.022493321 -0.032111157 0.08376823 -0.0688761 0.04467639 0.009501489 -0.041884117 0.06949661 0.013573556 -0.10176289 0.033352166 -0.006864341 0.058948014 -0.07632217 0.05026094 0.04467639 -0.039712347 0.0013767463 -0.034282923 -0.0918348 -0.030559892 -0.044055883 -0.040643103 -0.096798845 -0.03785083 0.0688761 0.035058554 0.041884117 -0.04901993 -0.028853502 0.05832751 -0.030404765 -0.047158413 -0.014426751 0.0116344765 -0.06639408 -0.026216354 0.07321964 -0.08128621 -0.12037805 0.068565845 -0.009230018 0.1147935 0.0020651196 0.009811742 -0.035368808 -0.053673718 -0.020631805 -0.061430037 0.032111157 0.0918348 -0.06422231 0.011091534 -0.10486542 0.021407437 -0.026991986 -0.01830491 0.09059379 -0.08314773 -0.0015221774 -0.018925415 0.022183068 0.13402916 -0.01171204 0.040953357 0.032421406 0.059878774 0.037540577 -0.036764946 -0.024509965 -0.03614444 0.039712347 0.022338195 -0.053673718 -0.055845488 0.0034709522 0.068255596 0.072909385 -0.043745633 -0.13154715 -0.02761249 -0.11541401 0.096798845 0.022183068 0.01318574 -0.043745633 0.028543249 0.011169097 0.088111766 -0.02931888 -0.029939387 0.050571192 0.035368808 0.009579052 0.04684816 0.018692726 -0.13527018 0.06205054 -0.09059379 0.004731354 0.055535235 -0.03443805 -0.027147112 0.05398397 0.030094512 -0.008376823 -0.010703718 0.049640432 -0.111690976 -0.10052188 -0.07818368 -0.022027941 -0.060189024 0.048709676 0.075081155 -0.070737615 0.02637148 0.007523628 -0.08376823 -0.04901993 0.14457776 -0.092455305 0.016753646 -0.029008629 -0.028698375 -0.01171204 0.096798845 0.06174029 -0.0011876861 0.048709676 0.08128621 0.06205054 0.003005573 0.002171769 -0.017296588 -0.025285596 -0.06329155 0.054914728 -0.02978426 0.10796794 0.061430037 0.0013961372 -0.08066571 -0.03195603 0.012875487 -0.09059379 -0.076942675 0.1036244 -0.0025983665 -0.10424491 -0.017684404 0.031180397 -0.044986643 -0.023889458 -0.033972673 0.18118758 -0.008687076 -0.061430037 0.030559892 0.053363465 0.0007659364 -0.10796794 -0.030404765 0.0800452 -0.006205054 0.053363465 -0.15140332 -0.0035097338 -0.11044996 0.07911444 0.0400226 -0.033352166 -0.016986337 0.08314773 0.024665091 -0.058948014 0.034593176 -0.04684816 -0.005390641 -0.10052188 -0.053673718 0.058948014 -0.02171769 -0.003490343 -0.03490343 -0.06732484 0.008919765 0.0059335832 0.08376823 0.019313231 0.03614444 0.08625025 0.07135812 0.08376823 0.07166838 -0.044986643 -0.02342408 -0.10238339 0.006786778 0.044055883 0.07446065 -0.020166427 0.06763509 -0.016055578 -0.03955722 -0.019468358 0.050571192 0.07911444 -0.0036066878 0.012642798 -0.05522498 0.05956852 -0.016443394 0.058948014 0.01295305 -0.08376823 -0.014349188 -0.056776244 0.040643103 0.013573556 0.032576535 0.06515307 0.008609513 -0.040953357 0.017296588 -0.047158413 -0.0134184295 0.07321964 0.07011711 -0.046537906 -0.0229587 0.012099856 -0.0149696935 0.0060887095 -0.020321552 0.017063899 0.11293199 -0.009191236
denver -0.018148081 -0.048717517 0.013389251 0.124536164 -0.025326656 0.0066542965 -0.097435035 -0.042264864 -0.028069032 -0.052589107 -0.08969185 0.026778502 0.0822713 0.04549119 0.13421515 0.021455064 -0.044845924 0.0155670205 -0.027585084 -0.026778502 -0.056138065 -0.047426987 -0.028714297 0.048394885 -0.018954663 0.076463915 -0.073882855 -0.019680586 -0.048717517 -0.045168556 0.119374044 -0.09549924 0.031134041 -0.04420066 0.066139676 0.061622817 0.061622817 -0.072592326 0.03903854 0.040167753 0.008549763 -0.08388446 0.08194867 0.017260842 -0.11356666 0.098725565 0.01992256 -0.017260842 0.1535731 0.07226969 0.0039724135 -0.10324242 -0.024358759 -0.0033069837 -0.060977552 0.018148081 0.067430206 -0.0208098 -0.031134041 0.02161638 -0.036618795 0.016131628 0.040490385 0.06710757 0.024358759 -0.08646552 0.079044975 0.026939819 0.009719306 0.08840132 -0.006210677 -0.06807547 -0.07162443 0.037586693 -0.060977552 -0.07614128 0.04904015 0.11872878 0.028069032 0.012905302 -0.000395729 -0.032263257 0.050975945 -0.12647197 -0.06549441 0.0013510238 0.041296966 0.053879637 0.014437807 0.005444424 0.062268082 0.0048394883 0.0040934007 -0.043555394 -0.001542587 0.0005192368 0.028230349 -0.005020969 -0.10324242 0.0029440222 0.048394885 -0.03678011 0.046136454 0.015889654 0.055170167 -0.055170167 0.08646552 -0.060332287 -0.030650092 -0.048717517 -0.038231958 0.056138065 -0.042587496 -0.08517499 0.0035892872 -0.046459086 0.08646552 -0.032263257 0.06194545 0.06420388 -0.18970795 -0.07194706 -0.066139676 -0.053879637 0.15744469 -0.025487972 0.05291174 0.059041757 0.020083876 -0.024681391 0.029682195 0.03726406 0.011211481 0.022584278 0.020406509 -0.060009655 -0.109049805 0.025971921 -0.057428595 0.061622817 0.02210033 -0.04678172 -0.013550567 -0.11485719 0.08517499 0.0554928 0.054847535 -0.072592326 -0.018712688 0.058396492 0.13034356 -0.034521684 0.06259072 0.10324242 0.019841902 0.0017543145 0.013631226 -0.0683981 -0.08452973 0.102597155 -0.07162443 0.02032585 0.035650898 0.007622194 -0.020245193 0.054524902 0.012179379 -0.05291174 0.04452329 0.051298577 -0.051298577 -0.1367962 -0.0208098 0.020164534 0.025004024 -0.011211481 -0.015728338 -0.14002253 -0.10453295 0.013147277 -0.012098721 -0.056460697 0.03855459 -0.06065492 -0.017099526 -0.07162443 -0.066139676 -0.02387481 0.011453455 0.07323759 -0.05033068 -0.0104049 0.023552177 -0.020648483 -0.04678172 0.04113565 -0.062268082 -0.07581865 -0.020971116 0.002339086 -0.059041757 0.024681391 0.04904015 0.04420066 -0.039199855 0.046136454 0.061622817 -0.059041757 0.030650092 0.012421354 -0.08065814 -0.014034516 -0.012018063 -0.08388446 -0.094853975 0.0832392 -0.010041938 0.10969507 0.01863203 -0.0060090316 0.05033068 0.005283108 -0.01645426 -0.06291335 -0.0072995615 0.04291013 -0.0277464 0.06517178 -0.15938048 -0.013147277 -0.055815432 0.15421836 -0.022261646 0.05291174 -0.020971116 0.07162443 -0.00095277425 0.058719125 -0.018309398 -0.037425376 0.004516856 0.0043152105 -0.009275686 -0.021455064 -0.049685415 0.059041757 0.009033712 0.012098721 0.0058880444 -0.036296163 0.034844317 0.051298577 -0.056460697 -0.04032907 0.07420549 -0.0208098 0.067430206 -0.015728338 -0.053234372 -0.08388446 0.08775605 0.118083514 0.102597155 0.015970312 0.04420066 0.06194545 0.02339086 -0.0416196 -0.011453455 0.037586693 -0.05420227 -0.031456675 0.0277464 0.0074608778 -0.018712688 0.025810605 -0.036134847 0.07710918 -0.023552177 -0.058719125 0.021939013 -0.05678333 -0.01863203 0.10582348 -0.009396673 -0.048394885 0.0822713 -0.03984512 0.014518465 -0.0065333094 0.08517499 0.010888848 -0.0037506034 0.024681391 0.004557185 0.019115979 0.033553787 0.019438611 0.02645587 -0.028069032
blue 0.01540828 0.03409082 0.0882124 0.04680265 -0.03409082 -0.098612994 0.0022029025 -0.09668696 0.023593929 0.011941417 0.043720994 0.03948372 -0.0033224104 -0.0094857225 -0.12942955 -0.049691703 -0.08089347 0.11325086 -0.0878272 -0.098227784 -0.022245703 0.06625561 -0.04564703 -0.15562363 -0.0604775 0.029853543 -0.043335788 0.037172474 0.05893667 -0.05277336 0.027734904 0.0441062 0.06702602 -0.011315456 0.028120112 -0.015600883 0.049306497 0.0385207 -0.081278674 0.022630911 0.06664081 -0.024653248 -0.008089347 -0.08397513 0.09167927 0.008281951 -0.026001472 -0.05893667 0.043335788 0.055855013 -0.04256537 0.06779643 0.05893667 0.010593193 0.040639337 -0.020608574 -0.009437571 -0.038328096 -0.047187857 -0.049691703 -0.11325086 0.046995252 -0.015311978 -0.003948372 0.047187857 0.018489936 -0.124036655 0.051617738 -0.0009931118 0.09938341 0.09244968 0.07588578 0.012278473 -0.052002944 -0.033127803 -0.032742593 0.09630175 0.049691703 -0.06163312 0.16178694 0.1271183 -0.0770414 -0.019934462 -0.08358992 0.011941417 -0.020127065 -0.08089347 -0.05238815 0.042757977 -0.033898216 -0.04622484 0.054314185 -0.013385943 0.065099984 -0.0066929716 0.07126329 0.03351301 0.04834348 0.027157092 0.1101692 0.004526182 -0.04468401 0.07588578 -0.0024918078 -0.038713302 -0.053543773 0.19568515 -0.001456564 -0.041409753 -0.017912125 0.012615529 0.008426403 -0.034476027 0.07434495 0.06432957 0.057395842 -0.024845852 0.047573064 0.002527921 0.036979873 0.051617738 -0.08089347 -0.010352438 -0.060862705 0.057781048 0.023593929 -0.0047187856 0.023208722 0.08590116 0.086286366 -0.022919817 0.041987564 0.018008428 0.06432957 -0.011652512 0.03640206 -0.064714774 0.011989567 0.035439044 0.023208722 0.057395842 -0.0082338 0.0038761455 0.026579283 0.048921287 0.06625561 0.014637866 -0.016660202 0.001456564 -0.0550846 0.06741122 0.029660938 -0.08936802 0.034283422 0.05662543 -0.022245703 -0.026579283 -0.016274996 -0.06432957 0.045069218 -0.09244968 0.0052002943 0.14175618 0.016178694 -0.008619007 -0.03081656 0.043335788 -0.056240223 -0.048728686 0.031009164 -0.011893266 0.024653248 -0.07973785 0.09553134 -0.07896744 -0.013482245 0.035631645 -0.06625561 -0.057010636 -0.090138435 -0.04853608 -0.016756505 -0.059707087 0.05007691 -0.097842574 -0.0716485 0.041602354 0.010737645 0.012519227 -0.0020704877 -0.009967231 -0.045839634 0.00025730624 0.0056818034 0.070107676 0.090523645 0.030431353 0.03023875 -0.0062596137 0.0075115366 0.030431353 -0.035053838 -0.020704877 -0.120184585 0.11941417 0.0075115366 0.047573064 -0.007993045 -0.07280412 -0.041024547 0.007607838 -0.017334314 -0.022823514 0.006042935 0.033320405 0.0036353911 0.11402127 -0.07126329 -0.103235476 0.0024918078 -0.08320471 0.018104728 0.040831942 0.090138435 -0.081278674 -0.0770414 0.06625561 0.103235476 -0.029275732 -0.07935264 0.05893667 -0.012615529 0.077811815 0.0072707823 -0.022630911 -0.06278874 -0.062403534 -0.06548519 0.110939614 -0.0038279945 0.07665619 -0.040639337 -0.035631645 0.017719522 -0.0007222631 0.012808133 0.027927507 -0.011845116 0.03967632 0.017526919 -0.039291114 -0.0013000736 0.13713369 0.10246506 -0.02089748 -0.10939879 -0.07434495 0.032549992 -0.027349697 0.0219568 0.0385207 -0.036016855 -0.025231058 0.003250184 0.0716485 0.03524644 -0.03023875 -0.016660202 0.026194075 -0.047380462 0.053543773 -0.024460644 -0.054314185 0.016949108 0.025038455 0.03582425 -0.049691703 -0.114791684 -0.023882834 0.11171003 -0.026771886 0.044298805 0.13097037 0.014637866 0.047380462 -0.012422926 0.056240223 -0.04680265 -0.08358992 -0.08936802 0.020319669 -0.058166258 -0.041024547 0.0017093561 0.06664081 -0.04468401 0.07588578 0.018393634 0.008907911 -0.062018327
apple -0.055638872 0.009558074 -0.06900463 0.04973307 -0.1137644 -0.019271564 0.043516435 0.030461505 0.0010102029 -0.013676594 -0.10506111 0.08205956 0.08019457 -0.0882762 -0.022224465 -0.009402658 0.10257445 -0.024711119 -0.009752344 -0.05346305 -0.01833907 0.00971349 0.0017581417 -0.04040812 -0.0045847674 0.055949703 0.030150672 0.10070946 -0.0024866534 -0.0010830541 0.01157848 0.035590228 -0.039475624 0.041340612 -0.010257445 -0.050976396 0.024089456 0.021447387 0.12992764 0.071180455 0.050976396 0.01157848 -0.052219722 -0.111899406 0.014298257 0.02020406 -0.03667814 0.09946614 -0.008936411 -0.029373594 0.01903844 0.0050121606 -0.03667814 0.069626294 -0.018416777 0.06589632 -0.03294816 -0.06589632 -0.022535296 -0.023778623 0.043205604 0.05750386 -0.07957291 -0.010412862 -0.031083168 -0.024866534 0.0023312375 0.078640416 -0.055949703 0.003865969 -0.07926208 -0.017872822 0.013054931 -0.050665565 -0.010645985 -0.002321524 -0.035434812 -0.06465299 0.032015663 -0.04040812 -0.02206905 -0.0032637327 -0.05781469 -0.049111404 -0.025177365 -0.12992764 0.10257445 0.09262784 -0.08578955 -0.051287226 -0.09324951 0.037455216 -0.052219722 -0.038698543 0.04040812 -0.1000878 -0.008470164 0.025799029 0.03776605 0.026420692 0.009791198 -0.024555702 -0.06651798 0.04071895 0.018727608 -0.049422238 -0.022224465 0.032792743 0.014919921 -0.14546923 -0.11500772 -0.0001590584 0.0755321 -0.0015250179 0.04444893 -0.018416777 -0.07615376 -0.13863093 -0.02688694 0.010956816 -0.015697 -0.049111404 -0.10568277 -0.06900463 0.052530553 -0.03590106 -0.04631392 0.050976396 -0.11438606 0.025799029 -0.038387712 -0.01422055 -0.07180212 -0.018028237 -0.025177365 0.0035551374 0.0070325667 -0.0072656907 -0.017717406 -0.05315222 0.00559497 -0.04444893 -0.08019457 -0.11438606 0.07024796 -0.017018035 0.10257445 -0.06092301 -0.18276903 -0.05035473 -0.0186499 -0.06931546 -0.041651446 -0.014686797 -0.08081624 0.011500772 -0.05035473 -0.04444893 -0.0149976285 0.07770792 -0.10506111 -0.058125526 -0.028285682 -0.0035551374 -0.030927751 -0.048489742 0.10195279 0.006838297 -0.0016027258 0.020359475 -0.029839842 -0.05408471 -0.025177365 -0.04786808 -0.055328038 0.03356982 0.0814379 -0.03061692 -0.0080427695 -0.03403607 -0.076775424 -0.026109861 0.018727608 -0.08765453 0.070558794 0.019504689 0.0059446557 0.09262784 -0.027508603 -0.02206905 0.0043127895 0.056260534 -0.016163247 -0.06651798 -0.043827266 0.046624754 -0.098844476 -0.07273462 -0.049111404 0.0118893115 0.003011182 -0.077397086 0.04475976 0.09635782 -0.00073822524 0.05346305 0.04258394 -0.035279397 -0.07957291 0.007731938 0.015697 0.058747187 -0.0053229923 0.029529009 -0.055017207 -0.012744099 0.02129197 0.039786454 -0.06776131 -0.12060269 -0.11625105 0.11687271 0.02875193 0.07366711 -0.043205604 0.037455216 -0.014919921 0.008936411 0.05190889 0.028907346 -0.13303596 -0.059990514 -0.07304545 -0.117494375 0.045070592 -0.004507059 0.047246415 -0.058436356 0.03465773 0.025488198 0.07584293 -0.004837318 -0.0051287226 -0.14049593 0.014065133 -0.05750386 -0.060301345 -0.0010976244 -0.031704832 -0.043205604 -0.14298257 0.06713964 0.010645985 0.052841384 0.049422238 0.063720495 0.05719303 0.017095743 -0.06154467 0.098844476 0.09387117 0.008625579 0.008003916 0.07957291 -0.018416777 0.06620715 -0.111899406 -0.04040812 0.03248191 -0.091384515 0.0372998 0.045070592 0.023001544 -0.010723693 0.06807214 -0.011267648 0.09946614 -0.034191485 -0.041340612 0.008470164 -0.040097285 0.10381778 0.009441513 0.09635782 0.038232297 -0.03698897 0.017484281 0.0036716992 0.019893227 0.09635782 0.042894773 -0.029373594 0.010723693 -0.050665565 0.11003441 -0.021447387 -0.07770792 -0.005711532 -0.033880655 0.08205956
desk -0.012260566 0.008095117 -0.110030726 0.016504608 -0.031122977 -0.08362335 0.019412564 0.0675903 0.16221672 0.06633281 0.042440422 -0.010531512 0.052500375 -0.097455785 0.03866794 0.0025346363 0.009195425 -0.048099145 0.10940198 -0.047156025 0.078279 0.0028490098 0.043697916 -0.0087631615 -0.01257494 -0.03725326 0.057215977 0.015011335 0.009156128 -0.017997883 -0.021220211 -0.027507681 -0.103743255 0.080479614 -0.062245954 -0.08802458 -0.009824172 0.069790915 0.016033048 -0.012260566 -0.0795365 -0.07985087 -0.04306917 -0.05753035 0.03426671 0.0688478 -0.04589853 0.025307067 0.02027709 -0.014382588 -0.093054555 -0.1150607 0.088653326 -0.020119904 0.027979242 0.044326663 0.023892386 -0.013596654 -0.055958483 0.05847347 0.036467325 -0.029708296 -0.06853342 0.010020656 0.019491157 0.07010529 -0.059730966 0.009038238 -0.017604915 -0.029236736 0.1471268 0.0047156024 0.0735634 0.040239807 -0.09997077 0.042440422 0.07702151 0.0022399111 -0.046212904 -0.019255377 0.049671013 0.027193308 -0.029236736 0.027036121 0.013911027 0.044641037 0.06444657 -0.0344239 0.059416592 0.061302833 -0.013596654 -0.059730966 -0.043383542 -0.10751574 -0.0034974052 0.015011335 0.12763564 0.028922362 0.022163332 -0.07985087 -0.112545714 -0.09808453 0.07859337 -0.027979242 0.004578064 -0.029236736 0.022477705 -0.030808603 0.078279 -0.046212904 0.005776613 -0.050614133 0.0011789006 -0.07041966 0.049671013 0.06444657 -0.02514988 0.03285203 0.08802458 -0.011631819 -0.09053957 -0.06821905 0.034895457 0.12260567 0.026721748 -0.037567634 0.008488084 0.03238047 0.118833184 0.03866794 -0.005422943 -0.049671013 -0.05470099 -0.007820041 0.0017094059 0.029393923 -0.045269784 0.07890775 -0.01233916 0.07513527 0.026721748 -0.08362335 -0.014382588 -0.049042266 -0.016976168 0.04055418 -0.08110836 -0.12826438 0.101857014 0.1056295 0.16221672 0.12260567 0.019726938 0.12197692 0.0079379305 -0.049042266 -0.1056295 -0.025935814 -0.07041966 0.041182928 -0.04589853 -0.017919289 -0.0106101055 -0.026407374 0.05375787 0.022006145 -0.05847347 -0.028450802 -0.03190891 0.011710413 -0.03615295 0.04841352 0.040868554 -0.059416592 -0.07450652 -0.06256033 0.051871628 -0.084880844 0.0391395 0.015875861 -0.07890775 -0.014461181 0.016583202 -0.025464254 0.041811675 -0.027350495 -0.043697916 0.104372 -0.00320268 0.0474704 -0.014146808 -0.07104841 -0.014225401 -0.015325708 0.0025935813 0.055015363 0.048099145 -0.08550959 -0.00020753563 -0.0414973 -0.13392311 0.04684165 -0.04306917 0.055958483 0.03520983 0.06570406 0.026721748 0.11317446 -0.05029976 -0.045584157 -0.041811675 -0.10500075 -0.14335431 -0.055329736 0.021534584 0.037567634 -0.06381782 0.06664718 -0.042754795 0.00628747 -0.029236736 -0.02514988 -0.034895457 -0.0064839534 -0.050928507 -0.037567634 -0.046527278 0.04401229 0.014932741 -0.101857014 0.06633281 0.02027709 -0.042754795 -0.09242581 -0.0829946 -0.038039193 -0.03536702 0.08739583 -0.010452919 -0.010845886 0.075764015 0.009784875 -0.027036121 -0.075764015 -0.0074663707 -0.038353566 0.0237352 -0.012653533 -0.050928507 -0.03772482 -0.044326663 0.10688699 0.052500375 0.015089928 -0.039925434 -0.07513527 -0.06413219 0.02074865 -0.020591464 0.03238047 0.020591464 -0.028922362 -0.07765026 -0.04401229 -7.9821395e-05 0.080479614 0.004361932 -0.04589853 -0.060359713 -0.03536702 0.06821905 0.04841352 -0.058787845 -0.037567634 -0.07041966 0.10940198 0.035524204 -0.032066096 -0.0056194263 -0.03882513 0.00605169 0.030337043 0.045269784 0.08739583 0.03725326 0.0795365 -0.10877323 -0.011789006 0.042754795 0.0066018435 -0.05375787 0.0089596445 0.061617207 0.0237352 0.0237352 0.06916217 0.0056194263 0.026093 -0.07199153 0.0936833
grape 0.0110618565 0.012042021 -0.024224065 0.03640611 0.043687332 0.023103878 0.055729356 -0.08121363 0.03640611 0.06833147 0.065250956 -0.05993006 -0.025764324 -0.015962679 -0.08233382 0.08513429 -0.09745636 0.11649956 0.015822656 0.024924183 -0.03640611 0.13666295 0.0026429435 -0.051248603 -0.023944018 0.0049358285 0.012812151 0.010571774 -0.022263737 -0.028424772 0.008471422 -0.017012855 -0.051528648 0.07141199 -0.072252125 0.041727003 0.048168086 -0.10809814 0.08625448 -0.035846017 0.047888037 0.024644136 -0.05404907 -0.034165736 -0.009031516 -0.10585777 0.025064208 0.02478416 -0.04508757 0.016102703 -0.15682632 -0.01603269 -0.04032677 -0.0375263 -0.055169262 0.009311563 -0.06945166 0.050128415 -0.019323243 -0.047888037 -0.08233382 0.01603269 -0.04760799 -0.05432912 -0.04760799 -0.033045545 0.0375263 -0.1405836 0.11593946 -0.021423597 0.029264912 -0.010851822 -0.05796973 -0.067771375 -0.03248545 0.032625478 -0.07841316 -0.08065354 -0.045647662 0.005635946 -0.12882163 -0.0022141216 0.0038506463 -0.060210105 0.0036931199 0.009101528 -0.022123713 0.12098031 -0.035005875 0.014142374 -0.01918322 -0.055449307 -0.02478416 -0.017292902 0.00017940512 0.0027129555 -0.007946334 -0.022263737 0.009941669 -0.15682632 -0.1215404 -0.08961504 -0.028284747 0.031925358 -0.0046907873 -0.005915993 -0.015052526 0.011481928 -0.0940958 -0.114259176 -0.08065354 -0.06693123 0.0051808697 -0.05432912 0.030525124 0.10753805 -0.0019690804 -0.06917161 -0.042847194 -0.017852997 -0.058529824 0.083454005 -0.030945195 -0.07113194 0.071692035 -0.047888037 -0.029404936 -0.00039162824 -0.012812151 0.06469086 -0.038646486 -0.049008228 -0.041727003 -0.021143548 0.04480752 0.043687332 0.006266052 0.07841316 0.017362915 -0.012112033 0.014492433 -0.07337232 -0.06665119 -0.08009344 0.01316221 -0.015542609 0.08905495 0.1299418 -0.10081692 -0.050128415 0.086814575 -0.036966205 -0.1299418 0.04508757 -0.05264884 -0.051248603 0.00560094 -0.025484277 -0.0840141 -0.010711798 -0.016802821 -0.026044372 0.061330296 0.026044372 -0.016452761 -0.05404907 0.067211285 0.020863501 -0.047327943 -0.037246253 -0.021143548 -0.0009276557 -0.025064208 0.009311563 -0.0840141 -0.08233382 0.045647662 0.0072462163 -0.021003526 0.03206538 -0.044247426 -0.043407287 -0.11930002 0.06693123 -0.0033605641 0.054889213 -0.010221716 0.06441081 -0.058809873 0.026744489 0.034165736 -0.0068961577 -0.022963855 0.018203055 0.045647662 0.026744489 0.025484277 -0.022543784 0.017502937 -0.07085189 0.07449251 -0.0018815658 -0.01960329 -0.0077012926 -0.054889213 0.02436409 0.08233382 0.06805142 0.010361739 -0.037806347 -0.09465589 0.00097141304 -0.01960329 0.020443432 0.004795805 0.01442242 -0.042847194 -0.018903174 0.091295324 0.14562444 0.057129588 -0.0049358285 -0.044527475 -0.03640611 0.053769026 0.055449307 0.062170435 0.08177373 0.020443432 0.11873993 0.005845981 -0.05796973 -0.037806347 0.10529768 -0.13274229 -0.09241551 -0.075612694 -0.047888037 0.08065354 -0.031085217 0.07337232 -3.281801e-05 0.035005875 0.07841316 0.07841316 -0.057129588 -0.010921833 -0.04508757 -0.043687332 0.06749133 -0.036966205 -0.14674464 0.033325594 -0.039766677 0.06749133 -0.039486628 0.0047257934 -0.05628945 -0.017082868 -0.0058809873 -0.0375263 0.010361739 -0.044247426 0.122100495 0.024504114 -0.03402571 -0.071692035 -0.02156362 -0.06161034 -0.06889156 -0.056569494 0.023103878 0.0114119155 -0.00042882198 0.07337232 -0.027724653 0.01918322 -0.13554275 -0.045647662 0.063850716 -0.055729356 0.05796973 0.08121363 -0.07113194 -0.012812151 -0.02884484 -0.01358228 0.053208932 -0.019323243 0.12658125 0.03248545 -0.009661621 0.07141199 -0.006161034 0.0607702 0.044247426 0.041446958 0.07953335 0.05993006 0.07141199
green 0.022055605 0.07546298 0.0670782 -0.018501189 -0.0089771785 -0.13051085 0.030258102 -0.12540707 0.060516205 0.00966072 0.005627825 -0.0061974428 -0.01285058 -0.00560504 -0.10134642 -0.06744276 -0.009706289 0.075098425 -0.000669301 0.0042379573 -0.056506097 0.014308802 -0.012668302 0.0077923727 -0.061245315 0.071088314 -0.048485875 0.0012645518 0.097700864 -0.07874398 0.05067321 0.0417416 -0.009432873 -0.004329096 -0.036455546 -0.074004754 0.0351796 -0.001241767 0.004556943 -0.06890098 0.0050809914 -0.08712875 0.0031442908 -0.020232828 -0.05614154 -0.06416176 -0.07473387 -0.059057985 0.03208088 0.08749331 -0.04411121 0.10353375 0.0335391 0.056506097 -0.009022747 -0.054683316 0.02014169 -0.05687065 0.051037762 -0.08056676 -0.042288434 0.037913766 -0.1341564 0.0014183485 0.004420235 -0.02314927 -0.033356823 0.030804936 -0.022875855 0.071088314 -0.0018683467 0.017225245 0.058328874 -0.10572108 0.063797206 0.009250594 0.113012195 0.08202498 -0.097700864 0.13707285 0.005354408 -0.03208088 -0.09259708 -0.006106304 0.043746654 -0.06233898 0.017134106 0.00719997 0.08202498 -0.053589653 -0.036820102 0.093326196 -0.0039645405 -0.058693428 -0.022237882 0.10353375 -0.019048022 -0.0025177111 0.053589653 -0.020597383 -0.025154326 -0.021144217 0.036637824 0.07145287 -0.04064793 -0.093326196 0.076556645 -0.021326493 -0.033174545 -0.10645019 -0.053589653 -0.012577163 -0.03044038 0.0998882 0.06561998 -0.037184656 0.048485875 0.03937199 -0.043564375 0.042288434 0.014217663 -0.07181743 -0.043564375 -0.02324041 -0.05687065 -0.014855634 0.08238953 0.025518881 -0.0066987067 0.031898603 0.018956883 -0.013123997 0.0670782 -0.022784716 0.043017544 0.08895153 -0.013853108 -0.028435325 0.05541243 -0.043746654 -0.014855634 -0.061245315 -0.090409756 -0.053225096 0.028435325 0.051766876 -0.037549213 -0.029346714 -0.016587272 -0.041559324 -0.0670782 -0.009934136 -0.053589653 0.042835265 0.0384606 0.03280999 0.053589653 -0.15311329 -0.030987214 -0.03536188 -0.11082486 0.023696104 0.02324041 -0.010344261 -0.048850432 0.041377045 0.07983764 -0.065255426 -0.0070176926 -0.09405531 -0.06598454 0.054683316 -0.004625297 0.079473086 -0.085305974 0.000763288 0.029711269 -0.0499441 -0.001526576 -0.06890098 -0.100617304 -0.021873327 -0.06452631 0.0027341659 -0.018683467 -0.06306809 -0.018956883 0.020597383 0.018318912 -0.032445434 -0.069630094 0.023331549 -0.06561998 -0.086399645 0.08712875 0.087857865 -0.009113886 0.022602439 0.023331549 -0.06197443 0.011073372 -0.0049898527 0.089316085 -0.01439994 0.059057985 0.0384606 -0.039736543 -0.010025275 -0.06890098 -0.042835265 -0.035726435 -0.08712875 0.036820102 0.0417416 0.0670782 0.13051085 0.036820102 -0.021964466 -0.014582219 0.04812132 -0.0417416 -0.058328874 -0.037366934 0.021235356 -0.1399893 -0.034997325 -0.010207552 -0.018501189 0.03044038 -0.08749331 0.032627713 0.02570116 0.08384775 0.009205026 -0.010708816 -0.026247993 -0.018045494 0.015675884 0.11811597 -0.06160987 0.11957419 0.0045113736 -0.047756765 -0.03208088 0.0056506097 -0.08822242 0.027523937 -0.04648082 -0.07436931 -0.09697175 -0.019503716 0.029893547 0.079473086 0.022329021 0.013032857 -0.09551353 -0.072546534 0.021782188 -0.075098425 0.013761968 -0.058693428 0.028253049 -0.037002377 -0.09624264 0.20269284 0.024789771 -0.11811597 -0.016587272 -0.03372138 -0.047392208 0.00016661323 -0.08056676 0.048850432 0.03280999 -0.037002377 -0.06015165 -0.07072376 -0.16915374 0.052495986 0.1203033 0.063797206 0.012759441 0.05140232 -0.023878383 -0.057235207 0.014035385 -0.039736543 -0.06634909 -0.0670782 0.03463277 -0.043564375 -0.038278323 -0.029528992 -0.03445049 0.033356823 0.018045494 0.022237882 0.0046936516 0.04028338 0.0769212
chair 0.038879003 -0.12287685 0.052798647 0.0007049819 -0.00061498425 -0.08255789 0.06783826 -0.04639881 0.078078 -0.030879209 -0.0071198177 0.015199611 -0.022719419 -0.06911823 -0.005159868 0.057918515 0.07359812 -0.0032399169 0.01759955 0.01639958 0.032479167 0.078717984 -0.05183867 0.00939976 0.040798955 -0.08831774 -0.069758214 0.051198687 -0.10111741 -0.058558498 -0.10175739 0.03551909 -0.031039204 0.04639881 0.0019699496 -0.018639522 -0.07839799 0.11071716 -0.036959052 -0.04479885 -0.1094372 0.03583908 0.0141596375 -0.04255891 -0.058558498 -0.015359607 -0.08639779 0.034079127 0.0703982 0.08159791 -0.09855747 0.0022099435 0.050878696 -0.0108797215 -0.007719802 0.01719956 0.022879414 -0.035679087 0.07455809 -0.041598935 -0.09535756 0.0026799312 -0.02143945 0.050238714 -0.00091997645 0.016559575 -0.071358174 0.0351991 0.03823902 0.052798647 0.11071716 -0.096637525 0.029119253 0.0071998155 -0.12415682 -0.08703777 -0.0064798337 0.050878696 0.050238714 -0.06463835 0.0895977 -0.032959156 0.0129596675 0.028319275 -0.011359709 0.029599242 -0.0195195 -0.12735674 0.0311992 -0.009319761 0.06047845 -0.06271839 0.07359812 -0.0041598934 -0.008879772 0.06527833 0.042238917 -0.020639472 -0.00859978 -0.039998975 -0.0623984 -0.1292767 0.0005024871 0.007319812 -0.0029399246 0.06527833 -0.06591831 0.0058398503 0.009519756 -0.024799364 -0.108797215 -0.06559832 0.11647701 -0.075518064 -0.036159072 -0.02687931 0.012559678 0.050558705 0.06591831 -0.0023099408 0.0010899721 -0.07263814 -0.012799672 0.0023899388 -0.024319377 -0.023519397 -0.011759698 -0.0009599754 0.027999282 0.06943822 0.043838877 -0.03359914 -0.07455809 0.015759597 -0.022079434 0.18175535 0.072318144 0.024479372 0.013519653 0.011599703 -0.0010699725 0.017759545 -0.01831953 -0.03791903 -0.0195195 0.061438426 -0.015919592 -0.035359096 0.14591627 0.123516835 0.10303736 0.08095793 0.0195195 0.090877675 0.114557065 0.012079691 -0.08063793 -0.022079434 -0.04767878 -0.01639958 -0.018639522 -0.056318555 0.08255789 0.047358785 0.04607882 0.055678573 -0.03423912 -0.052158665 0.024959361 0.016879568 0.10047743 0.064958334 -0.084477834 0.023999386 0.0033599138 -0.17407554 0.09471757 -0.061118435 0.05311864 0.048638754 -0.025279352 -0.024159381 0.08095793 -0.034879107 -0.0018799518 0.017759545 0.019439502 0.03439912 0.054078612 -0.03439912 0.07487808 -0.049278736 -0.0072798133 0.12991667 0.014239635 -0.035679087 -0.05695854 -0.061118435 0.0857578 0.000156246 -0.1324766 0.04767878 -0.013839645 -0.11839697 -0.023679392 -0.058878493 0.09599754 0.048638754 -0.034079127 0.019839492 -0.021279454 0.015439604 -0.05151868 -0.0076798033 0.02575934 -0.02143945 -0.08895772 -0.03471911 0.035679087 0.049598727 0.025919335 -0.026079332 -0.011119715 0.09407759 0.059198484 0.033439144 0.09407759 0.013119664 0.05535858 -0.013439655 -0.15103613 -0.0054398607 -0.051198687 -0.009639753 -0.06911823 0.030559218 -0.005119869 0.021919439 0.040798955 -0.01287967 -0.003279916 -0.07327812 -0.0311992 -0.03983898 0.029919233 0.021119459 0.014319633 -0.047358785 -0.058878493 -0.060798444 -0.009599754 0.042238917 -0.08831774 -0.046718802 -0.03199918 0.042238917 -0.019839492 0.058558498 -0.040958952 -0.024479372 -0.009479757 0.00024874363 0.011679701 -0.08831774 0.030239224 -0.003939899 0.010399734 0.06431835 -0.04639881 0.048638754 -0.030559218 0.09599754 0.064958334 0.052478656 -0.06047845 -0.043198895 0.007719802 -0.021279454 -0.07071819 0.0071998155 0.11839697 0.023199406 0.0428789 -0.009279762 0.13439655 0.08895772 -0.02687931 -0.081917904 0.043518886 0.0012699674 -0.093437605 -0.023519397 -0.04607882 0.024159381 -0.029599242 -0.07679803 0.064958334 0.0857578 0.039358992 0.056318555
boulder -0.0135244895 -0.10757765 0.028903766 0.1694039 -0.11808811 0.011360571 0.014683732 -0.00050475326 -0.026739847 -0.010742309 -0.04915186 -0.03168595 0.039105095 -0.045442283 0.09583067 0.032922473 -0.047606204 0.07295496 -0.03833227 0.03755944 -0.05162491 -0.051315777 -0.10881418 0.030449422 -0.08099237 0.07326409 -0.04729707 0.053479694 -0.026585283 -0.023339406 0.12427074 -0.089648046 0.047915336 -0.065844946 0.0435875 0.03895053 0.0037675363 -0.084083684 0.08470195 0.040805317 -0.008655673 -0.044824023 0.028749201 0.0078055626 -0.10139503 0.02596702 -0.038023137 -0.022257445 0.07326409 0.032458775 0.0028208222 -0.15271081 -0.06553581 -0.033540733 0.031376816 0.029058332 0.06368102 -0.023030274 -0.045751415 -0.057498403 -0.017079499 -0.0028401427 0.011515137 0.029212898 0.03168595 -0.100158505 0.089648046 0.050697517 -0.038795963 0.07697367 -0.017234065 -0.09397588 0.026585283 0.03694118 0.026585283 -0.056571007 0.0053711543 0.031995077 -0.045133155 -0.017002216 0.05193404 -0.03307704 0.019397981 -0.09335762 -0.09088457 -0.08037411 -0.042041842 0.06491755 0.023803102 0.021948315 -0.029058332 0.019784397 0.10077677 -0.06460842 -0.04173271 -0.005409796 0.03184051 -0.05780753 -0.074809745 0.08655673 -0.016383953 -0.08779326 -0.015147428 -0.013910904 0.07851932 -0.027358111 -0.011669703 0.00013584866 -0.07821019 -0.050079253 -0.058425795 0.061826237 0.03184051 -0.057498403 -0.028749201 -0.06491755 -0.03694118 -0.036322914 0.038486835 0.060898844 -0.13663599 0.02488506 -0.06151711 0.0090034455 0.14096382 -0.045751415 -0.08841152 0.08841152 0.023803102 0.036632046 -0.0024923703 -0.0035743294 0.01630667 0.08902978 -0.021175487 -0.0028401427 -0.09088457 0.017002216 -0.038795963 0.08655673 -0.054716222 -0.13601772 -0.02179375 -0.17435 0.12859857 0.047915336 0.054716222 -0.08841152 -0.026585283 0.06862713 0.09026631 -0.026121585 0.030603988 0.052861433 0.03539552 -0.039414227 0.10386808 -0.023957668 -0.061826237 0.09150283 -0.029676594 0.008771597 0.045133155 -0.02488506 -0.048533596 0.0073032244 0.03539552 -0.007380507 -0.053788826 0.0034970467 -0.030449422 -0.09706719 -0.042660102 0.10077677 0.036168348 -0.0058348514 -0.0076896385 -0.0060666995 -0.0525523 0.020248093 -0.019243417 -0.07975585 0.020248093 -0.14281861 0.01792961 -0.084083684 -0.055952746 -0.008153335 -0.025657889 -0.0036129707 -0.08346542 0.029058332 0.03446813 -0.009544426 -0.042660102 0.039414227 0.025657889 -0.051315777 -0.02210288 0.073573224 -0.029058332 0.011746985 0.07388236 0.051006645 -0.016152104 -0.0049267784 0.05162491 -0.0062599066 -0.043278366 0.04173271 -0.06151711 -0.05193404 0.008385183 -0.06151711 -0.07666454 0.04977012 -0.056261875 0.07604627 0.01823874 -0.07295496 0.03307704 -0.018393306 -0.035550088 -0.04111445 -0.05224317 0.07821019 0.02349397 -0.010819592 -0.06460842 0.022257445 -0.15209255 0.14096382 -0.034313563 -0.020557225 -0.028285503 0.012365247 -0.026585283 -0.014065469 -0.032149643 -0.023030274 0.06800886 -0.031531382 -0.009235295 0.066772334 -0.028130937 -0.02179375 -0.04636968 -0.046060547 -0.06924538 -0.02983116 0.0036516122 0.028749201 -0.04698794 0.07666454 0.00938986 0.0056416444 0.05688014 0.040187053 0.050079253 -0.1051046 -0.012751661 0.0018064854 0.012519813 0.018625153 0.12179769 0.109432444 -0.0673906 -0.031376816 0.016383953 0.08099237 0.0038448193 -0.04915186 -0.045133155 0.060898844 -0.03014029 0.031376816 -0.05688014 -0.030449422 -0.0134472065 -0.037404872 0.0673906 -0.07048191 -0.023648536 0.15765691 -0.016152104 -0.035550088 0.077591926 0.040187053 -0.0332316 0.052861433 0.06615408 0.04729707 -0.03925966 0.035240956 -0.074809745 -0.054097958 0.0050233817 0.031376816 -0.0136017725 -0.020557225
