15 300
vail 0.095214844 0.0065612793 -0.050048828 -0.09472656 -0.059326172 -0.0032348633 0.1640625 0.017456055 -0.037353516 0.006591797 -0.053955078 -0.125 0.009033203 -0.017700195 0.003540039 0.15820312 0.07861328 0.06689453 -0.064941406 -0.08984375 0.13476562 -0.078125 0.10253906 -0.021240234 0.036132812 0.041015625 -0.04736328 0.09423828 0.088378906 -0.35351562 0.028808594 0.0053100586 0.028442383 -0.026367188 -0.05126953 -0.05834961 -0.01586914 -0.06933594 -0.028808594 -0.083984375 -0.037109375 -0.03881836 0.06298828 -0.02319336 0.080566406 -0.0054016113 -0.12060547 -0.13964844 -0.14453125 0.11816406 -0.11425781 -0.045654297 0.068847656 0.088378906 -0.06738281 -0.06591797 -0.091308594 0.07763672 0.106933594 -0.21679688 -0.07910156 -0.036865234 -0.06225586 0.03930664 -0.14257812 -0.053710938 -0.016845703 -0.03564453 0.049316406 0.01586914 0.08691406 0.13964844 -0.13085938 -0.06347656 -0.09082031 -0.04248047 0.05883789 -0.07324219 0.010803223 -0.075683594 -0.10546875 -0.087890625 0.02722168 -0.040039062 -0.026489258 0.115722656 -0.021240234 0.083496094 0.06933594 0.09667969 -0.033691406 -0.047607422 0.006011963 -0.10644531 0.060302734 0.09716797 -0.032226562 -0.107421875 0.10595703 -0.107421875 -0.09472656 0.024536133 0.1484375 -0.050048828 -0.05883789 0.099121094 -0.029418945 0.07373047 -0.061523438 -0.05859375 -0.18066406 -0.08642578 0.06738281 -0.07080078 0.071777344 -0.009521484 0.018798828 -0.095214844 0.09765625 0.14941406 0.014709473 -0.057617188 0.091308594 0.02319336 0.030517578 -0.0002784729 -0.03564453 -0.078125 0.119140625 -0.087890625 -0.09033203 0.10058594 0.0019683838 -0.0013809204 -0.061523438 0.12158203 -0.064453125 -0.036621094 0.048339844 -0.041259766 0.20214844 -0.103515625 0.009399414 -0.056884766 0.11816406 -0.033447266 -0.067871094 -0.09423828 -0.072265625 -0.037597656 0.16015625 -0.02709961 0.07519531 0.11816406 -0.07910156 -0.044189453 -0.083496094 0.095703125 -0.13769531 0.052001953 -0.044189453 -0.091796875 -0.016235352 -0.024658203 -0.12060547 -0.16503906 -0.03515625 -0.03857422 -0.13671875 0.025512695 0.036376953 0.0703125 -0.110839844 0.123046875 -0.018676758 0.0025634766 0.10546875 -0.123535156 0.057617188 -0.14746094 -0.012573242 -0.09326172 0.024169922 -0.0126953125 0.08935547 -0.10449219 -0.11767578 -0.07714844 0.15234375 0.076660156 -0.015319824 0.123535156 0.0066223145 0.11669922 0.14941406 0.012756348 -0.15820312 0.017700195 -0.072753906 0.18066406 0.03112793 0.078125 -0.11328125 -0.07714844 0.13769531 0.028686523 0.15429688 0.103027344 -0.026000977 0.010986328 -0.05859375 0.020507812 -0.12695312 -0.15527344 -0.13867188 0.12597656 -0.025390625 0.2109375 -0.08300781 -0.08154297 0.01965332 -0.004211426 0.13867188 -0.0023956299 0.05078125 0.06640625 0.10449219 0.11767578 -0.091308594 -0.05053711 0.10107422 -0.095214844 -0.026367188 0.05493164 0.1015625 0.022827148 0.036865234 0.1796875 0.12158203 0.010986328 0.16796875 -0.0703125 -0.11621094 -0.053710938 0.016479492 -0.123535156 -0.017211914 0.072753906 -0.075683594 0.088378906 0.02355957 0.059570312 0.20507812 0.08251953 0.068847656 -0.10986328 -0.095214844 -0.10058594 -0.048583984 -0.103515625 0.052734375 -0.0041503906 -0.002166748 -0.017089844 0.021240234 0.09423828 -0.020507812 -0.029296875 0.09375 -0.052246094 -0.009887695 0.08691406 0.030395508 -0.056640625 0.0390625 -0.022338867 0.05517578 -0.014465332 -0.114746094 0.111328125 -0.061035156 0.08203125 0.08642578 -0.016845703 0.106933594 -0.09716797 0.07421875 0.21191406 -0.080566406 0.045410156 0.12451172 0.1875 -0.036132812 -0.09082031 -0.06542969 0.024291992 0.018676758 -0.15527344 -0.064941406 0.049316406
chair 0.118652344 -0.375 0.16113281 0.0021514893 -0.001876831 -0.25195312 0.20703125 -0.14160156 0.23828125 -0.09423828 -0.021728516 0.04638672 -0.06933594 -0.2109375 -0.01574707 0.17675781 0.22460938 -0.009887695 0.053710938 0.050048828 0.099121094 0.24023438 -0.15820312 0.028686523 0.12451172 -0.26953125 -0.21289062 0.15625 -0.30859375 -0.17871094 -0.31054688 0.10839844 -0.09472656 0.14160156 0.006011963 -0.056884766 -0.23925781 0.33789062 -0.11279297 -0.13671875 -0.33398438 0.109375 0.04321289 -0.12988281 -0.17871094 -0.046875 -0.26367188 0.104003906 0.21484375 0.24902344 -0.30078125 0.0067443848 0.15527344 -0.033203125 -0.02355957 0.052490234 0.06982422 -0.10888672 0.22753906 -0.12695312 -0.29101562 0.008178711 -0.06542969 0.15332031 -0.0028076172 0.05053711 -0.21777344 0.107421875 0.11669922 0.16113281 0.33789062 -0.29492188 0.08886719 0.021972656 -0.37890625 -0.265625 -0.01977539 0.15527344 0.15332031 -0.19726562 0.2734375 -0.10058594 0.03955078 0.08642578 -0.03466797 0.09033203 -0.059570312 -0.38867188 0.095214844 -0.028442383 0.18457031 -0.19140625 0.22460938 -0.0126953125 -0.02709961 0.19921875 0.12890625 -0.06298828 -0.026245117 -0.12207031 -0.19042969 -0.39453125 0.0015335083 0.022338867 -0.008972168 0.19921875 -0.20117188 0.017822266 0.029052734 -0.075683594 -0.33203125 -0.20019531 0.35546875 -0.23046875 -0.11035156 -0.08203125 0.038330078 0.15429688 0.20117188 -0.0070495605 0.003326416 -0.22167969 -0.0390625 0.007293701 -0.07421875 -0.071777344 -0.035888672 -0.0029296875 0.08544922 0.21191406 0.13378906 -0.10253906 -0.22753906 0.048095703 -0.06738281 0.5546875 0.22070312 0.07470703 0.041259766 0.03540039 -0.0032653809 0.05419922 -0.055908203 -0.115722656 -0.059570312 0.1875 -0.048583984 -0.107910156 0.4453125 0.37695312 0.31445312 0.24707031 0.059570312 0.27734375 0.34960938 0.036865234 -0.24609375 -0.06738281 -0.14550781 -0.050048828 -0.056884766 -0.171875 0.25195312 0.14453125 0.140625 0.16992188 -0.10449219 -0.15917969 0.076171875 0.051513672 0.30664062 0.19824219 -0.2578125 0.07324219 0.010253906 -0.53125 0.2890625 -0.18652344 0.16210938 0.1484375 -0.07714844 -0.07373047 0.24707031 -0.10644531 -0.0057373047 0.05419922 0.059326172 0.10498047 0.16503906 -0.10498047 0.22851562 -0.15039062 -0.022216797 0.39648438 0.04345703 -0.10888672 -0.17382812 -0.18652344 0.26171875 0.00047683716 -0.40429688 0.14550781 -0.042236328 -0.36132812 -0.072265625 -0.1796875 0.29296875 0.1484375 -0.104003906 0.060546875 -0.064941406 0.04711914 -0.15722656 -0.0234375 0.07861328 -0.06542969 -0.27148438 -0.10595703 0.10888672 0.15136719 0.07910156 -0.079589844 -0.033935547 0.28710938 0.18066406 0.10205078 0.28710938 0.040039062 0.16894531 -0.041015625 -0.4609375 -0.016601562 -0.15625 -0.029418945 -0.2109375 0.09326172 -0.015625 0.06689453 0.12451172 -0.03930664 -0.010009766 -0.22363281 -0.095214844 -0.12158203 0.091308594 0.064453125 0.043701172 -0.14453125 -0.1796875 -0.18554688 -0.029296875 0.12890625 -0.26953125 -0.14257812 -0.09765625 0.12890625 -0.060546875 0.17871094 -0.125 -0.07470703 -0.028930664 0.00075912476 0.03564453 -0.26953125 0.092285156 -0.012023926 0.03173828 0.19628906 -0.14160156 0.1484375 -0.09326172 0.29296875 0.19824219 0.16015625 -0.18457031 -0.13183594 0.02355957 -0.064941406 -0.21582031 0.021972656 0.36132812 0.07080078 0.13085938 -0.028320312 0.41015625 0.27148438 -0.08203125 -0.25 0.1328125 0.0038757324 -0.28515625 -0.071777344 -0.140625 0.07373047 -0.09033203 -0.234375 0.19824219 0.26171875 0.12011719 0.171875
green 0.05908203 0.20214844 0.1796875 -0.049560547 -0.024047852 -0.34960938 0.08105469 -0.3359375 0.16210938 0.025878906 0.015075684 -0.016601562 -0.034423828 -0.015014648 -0.27148438 -0.18066406 -0.026000977 0.20117188 -0.0017929077 0.011352539 -0.15136719 0.038330078 -0.033935547 0.020874023 -0.1640625 0.19042969 -0.12988281 0.0033874512 0.26171875 -0.2109375 0.13574219 0.111816406 -0.025268555 -0.01159668 -0.09765625 -0.19824219 0.09423828 -0.003326416 0.012207031 -0.18457031 0.01361084 -0.23339844 0.008422852 -0.05419922 -0.15039062 -0.171875 -0.20019531 -0.15820312 0.0859375 0.234375 -0.11816406 0.27734375 0.08984375 0.15136719 -0.024169922 -0.14648438 0.053955078 -0.15234375 0.13671875 -0.21582031 -0.11328125 0.1015625 -0.359375 0.0037994385 0.01184082 -0.06201172 -0.08935547 0.08251953 -0.061279297 0.19042969 -0.005004883 0.046142578 0.15625 -0.28320312 0.17089844 0.024780273 0.30273438 0.21972656 -0.26171875 0.3671875 0.014343262 -0.0859375 -0.24804688 -0.016357422 0.1171875 -0.16699219 0.045898438 0.01928711 0.21972656 -0.14355469 -0.09863281 0.25 -0.010620117 -0.15722656 -0.059570312 0.27734375 -0.05102539 -0.0067443848 0.14355469 -0.05517578 -0.06738281 -0.056640625 0.09814453 0.19140625 -0.10888672 -0.25 0.20507812 -0.057128906 -0.08886719 -0.28515625 -0.14355469 -0.033691406 -0.08154297 0.26757812 0.17578125 -0.099609375 0.12988281 0.10546875 -0.11669922 0.11328125 0.038085938 -0.19238281 -0.11669922 -0.06225586 -0.15234375 -0.039794922 0.22070312 0.068359375 -0.017944336 0.08544922 0.05078125 -0.03515625 0.1796875 -0.061035156 0.115234375 0.23828125 -0.037109375 -0.076171875 0.1484375 -0.1171875 -0.039794922 -0.1640625 -0.2421875 -0.14257812 0.076171875 0.13867188 -0.10058594 -0.07861328 -0.044433594 -0.111328125 -0.1796875 -0.026611328 -0.14355469 0.114746094 0.103027344 0.087890625 0.14355469 -0.41015625 -0.08300781 -0.09472656 -0.296875 0.06347656 0.06225586 -0.027709961 -0.13085938 0.110839844 0.21386719 -0.17480469 -0.018798828 -0.25195312 -0.17675781 0.14648438 -0.012390137 0.21289062 -0.22851562 0.0020446777 0.079589844 -0.13378906 -0.0040893555 -0.18457031 -0.26953125 -0.05859375 -0.17285156 0.0073242188 -0.050048828 -0.16894531 -0.05078125 0.05517578 0.049072266 -0.08691406 -0.18652344 0.0625 -0.17578125 -0.23144531 0.23339844 0.23535156 -0.024414062 0.060546875 0.0625 -0.16601562 0.029663086 -0.013366699 0.23925781 -0.03857422 0.15820312 0.103027344 -0.10644531 -0.026855469 -0.18457031 -0.114746094 -0.095703125 -0.23339844 0.09863281 0.111816406 0.1796875 0.34960938 0.09863281 -0.05883789 -0.0390625 0.12890625 -0.111816406 -0.15625 -0.100097656 0.056884766 -0.375 -0.09375 -0.02734375 -0.049560547 0.08154297 -0.234375 0.087402344 0.068847656 0.22460938 0.024658203 -0.028686523 -0.0703125 -0.048339844 0.041992188 0.31640625 -0.16503906 0.3203125 0.012084961 -0.12792969 -0.0859375 0.015136719 -0.23632812 0.07373047 -0.12451172 -0.19921875 -0.25976562 -0.052246094 0.080078125 0.21289062 0.059814453 0.03491211 -0.25585938 -0.19433594 0.05834961 -0.20117188 0.036865234 -0.15722656 0.075683594 -0.099121094 -0.2578125 0.54296875 0.06640625 -0.31640625 -0.044433594 -0.09033203 -0.12695312 0.00044631958 -0.21582031 0.13085938 0.087890625 -0.099121094 -0.16113281 -0.18945312 -0.453125 0.140625 0.32226562 0.17089844 0.034179688 0.13769531 -0.063964844 -0.15332031 0.037597656 -0.10644531 -0.17773438 -0.1796875 0.09277344 -0.11669922 -0.10253906 -0.07910156 -0.092285156 0.08935547 0.048339844 0.059570312 0.012573242 0.107910156 0.20605469
yellow -0.07324219 0.026367188 0.076171875 0.18945312 -0.04711914 -0.32421875 0.07421875 -0.5546875 -0.13085938 0.09765625 0.13476562 -0.055664062 -0.03100586 -0.12109375 -0.27148438 -0.18261719 -0.22851562 0.12597656 -0.38476562 -0.20410156 -0.08154297 0.15917969 0.041748047 -0.05517578 -0.12597656 -0.016113281 0.041015625 0.125 0.23828125 0.033447266 0.03930664 -0.110839844 0.1484375 -0.17089844 0.14355469 0.041503906 0.05102539 0.11621094 -0.19628906 0.04638672 0.15722656 -0.14746094 0.1953125 -0.22558594 -0.08935547 -0.09863281 -0.021240234 -0.14160156 -0.08935547 0.19238281 -0.19921875 0.075683594 0.22167969 -0.107910156 0.06933594 0.18457031 0.08203125 -0.17871094 0.021362305 0.03466797 -0.12792969 -0.009460449 -0.056396484 -0.0038604736 -0.07910156 0.1640625 -0.16894531 0.02709961 -0.29492188 0.30078125 0.25 0.14453125 -0.015197754 -0.2890625 -0.14941406 0.088378906 0.13574219 0.012634277 -0.041992188 0.3125 0.13378906 -0.15625 -0.029296875 -0.23632812 0.04736328 -0.04345703 -0.12792969 0.012084961 0.07324219 -0.06298828 0.064941406 -0.0025482178 -0.08984375 0.17285156 0.104003906 0.017578125 0.051513672 -0.100097656 -0.16113281 0.021850586 0.16503906 -0.13183594 0.17871094 -0.01574707 -0.30664062 -0.0625 0.40820312 -0.043945312 -0.37109375 -0.09033203 -0.0390625 -0.140625 0.18457031 0.24316406 0.024536133 -0.06933594 -0.0859375 0.1015625 -0.053710938 0.3515625 0.02758789 -0.09863281 -0.23242188 0.091308594 -0.01586914 0.08544922 -0.107421875 -0.068359375 0.111816406 0.13378906 -0.08544922 0.01586914 0.33007812 -0.15429688 0.08251953 0.015319824 -0.14355469 0.125 0.021118164 0.007232666 0.019897461 -0.16894531 0.022338867 -0.014465332 0.22753906 0.13574219 -0.055664062 -0.09033203 -0.10888672 -0.41015625 -0.08935547 -0.07714844 -0.20898438 0.053955078 -0.005432129 0.029174805 -0.15332031 -0.24121094 -0.080078125 -0.024536133 -0.20605469 0.055664062 0.46484375 0.03955078 -0.11376953 0.027954102 0.24707031 -0.16699219 -0.16699219 -0.080566406 -0.19433594 -0.031982422 -0.123046875 0.33789062 -0.09716797 0.05419922 -0.15136719 -0.013000488 0.05029297 -0.18261719 0.03100586 0.05834961 -0.37304688 0.07714844 -0.010986328 -0.35351562 0.08691406 0.00970459 -0.06738281 0.23925781 -0.059814453 -0.083496094 -0.26171875 -0.25 0.22363281 0.22167969 0.016113281 -0.27734375 -0.06591797 0.04638672 0.009521484 0.0032348633 -0.016357422 -0.08935547 0.34960938 -0.11376953 -0.24023438 -0.032958984 -0.048339844 -0.19335938 0.021118164 -0.13574219 -0.15722656 0.026367188 0.2734375 0.15527344 0.3046875 -0.028564453 -0.3359375 0.14941406 -0.087890625 -0.021118164 0.046142578 -0.0390625 -0.23632812 -0.096191406 -0.0006904602 0.036865234 0.21679688 -0.20117188 -0.05493164 -0.076171875 0.13183594 0.024291992 -0.23046875 -0.2109375 0.013366699 -0.048339844 0.39648438 -0.06689453 0.1875 -0.29296875 -0.09765625 -0.076660156 -0.017211914 -0.07080078 -0.06298828 -0.083496094 0.017944336 0.018554688 0.08886719 0.07128906 0.2265625 0.10449219 -0.06298828 -0.40039062 -0.36523438 -0.110839844 0.030029297 0.12792969 0.076171875 0.006866455 0.17285156 0.063964844 0.15625 -0.04345703 -0.28320312 0.2734375 0.04638672 -0.16601562 0.22167969 0.087890625 -0.1171875 0.109375 0.15625 0.2421875 -0.07324219 -0.32226562 -0.1015625 0.1875 0.071777344 0.091796875 0.25585938 0.033447266 -0.076660156 0.0046691895 -0.008666992 0.06982422 -0.37109375 -0.2890625 0.092285156 -0.1953125 -0.1640625 -0.08251953 0.20410156 -0.07861328 0.06933594 0.036376953 0.072265625 0.15136719
pear -0.19335938 -0.016967773 -0.055664062 0.2109375 -0.084472656 0.080566406 0.23535156 -0.24707031 0.014831543 0.265625 -0.072265625 -0.040283203 -0.15039062 0.06933594 -0.030761719 0.16992188 -0.27734375 0.09716797 -0.08691406 -0.13867188 -0.17578125 0.18457031 0.031982422 -0.22460938 -0.06982422 0.00982666 -0.24023438 0.16113281 0.020507812 0.1015625 -0.037109375 -0.05517578 0.22265625 -0.055419922 -0.15917969 -0.0068969727 0.0625 -0.11816406 0.15234375 0.16503906 -0.005554199 -0.18945312 -0.375 -0.1171875 0.19238281 -0.44335938 0.107421875 -0.1796875 0.08154297 -0.032226562 -0.140625 0.049804688 -0.072753906 0.06640625 -0.12011719 -0.107421875 0.040283203 -0.09814453 -0.21484375 -0.33984375 -0.11279297 0.053466797 -0.35351562 -0.06640625 -0.16699219 -0.35351562 0.05834961 -0.31445312 0.31445312 0.1875 0.23144531 -0.022583008 0.099121094 0.013977051 -0.28125 0.1875 -0.20410156 -0.055908203 0.14941406 0.030029297 -0.1796875 -0.10498047 -0.07080078 -0.20117188 0.09472656 0.09765625 0.072753906 0.36914062 -0.119628906 -0.043701172 -0.20898438 -0.25585938 -0.021728516 0.07373047 0.08300781 -0.33203125 -0.15820312 -0.021728516 0.05053711 -0.3671875 -0.29492188 -0.26171875 -0.15332031 0.18359375 0.05810547 -0.027709961 0.052978516 0.21972656 -0.28515625 -0.15625 -0.25195312 -0.37109375 0.087890625 -0.0703125 0.08105469 -0.0029754639 0.14746094 -0.15039062 -0.07910156 -0.10644531 0.021850586 0.19335938 -0.033203125 0.15625 0.19335938 0.2265625 -0.25390625 0.25 0.08154297 0.3671875 -0.07080078 0.05029297 -0.06201172 0.04711914 -0.123046875 0.29101562 -0.12597656 0.09375 0.08203125 0.00048828125 -0.14257812 -0.16210938 -0.35742188 -0.028686523 0.14160156 0.030639648 -0.035888672 0.08496094 -0.5234375 -0.0026245117 0.2421875 0.024291992 -0.2109375 0.40625 -0.029052734 -0.11669922 -0.19140625 -0.1171875 -0.14550781 -0.009277344 -0.18359375 -0.017333984 0.34570312 0.07080078 0.029907227 -0.123046875 0.36914062 -0.056152344 0.014160156 -0.068847656 -0.22070312 0.17480469 0.014221191 0.022094727 -0.38867188 -0.072265625 0.39648438 0.18066406 -0.12890625 0.08886719 -0.2578125 -0.2734375 -0.24121094 0.22949219 -0.09814453 -0.012023926 -0.13671875 0.067871094 0.059570312 -0.036376953 0.030883789 0.083496094 -0.19824219 -0.01586914 0.27148438 0.33789062 0.087402344 -0.056152344 0.05126953 -0.061523438 -0.08154297 -0.2578125 -0.15332031 0.22558594 -0.055664062 -0.012512207 0.0095825195 -0.10205078 0.06640625 -0.11376953 -0.36523438 -0.20507812 -0.05419922 0.17675781 -0.099609375 -0.039794922 -0.12695312 0.0052490234 0.48632812 0.34765625 0.09033203 0.17480469 -0.123535156 0.114746094 -0.12597656 -0.0625 0.1171875 0.0014266968 -0.005065918 0.33007812 -0.118652344 -0.24804688 -0.20800781 0.25390625 -0.104003906 -0.35742188 -0.18847656 -0.21191406 0.30078125 -0.22460938 0.26757812 0.037109375 -0.025024414 -0.003829956 0.19824219 -0.140625 -0.06738281 0.041503906 -0.033447266 0.33398438 -0.13085938 -0.21679688 0.3359375 -0.29492188 0.13476562 0.029174805 -0.107421875 -0.3984375 -0.08642578 -0.002029419 0.06591797 0.19140625 -0.27734375 0.1484375 0.01928711 -0.234375 -0.3984375 0.20019531 -0.22949219 0.031982422 -0.016967773 0.19140625 -0.0625 -0.10839844 0.103515625 -0.12792969 0.13476562 -0.05126953 -0.24023438 0.34179688 -0.28125 0.1640625 0.25 -0.07861328 0.09375 -0.0859375 -0.13378906 -0.033447266 -0.13867188 0.44140625 -0.091796875 -0.30078125 0.23242188 -0.14648438 0.36523438 -0.071777344 -0.017456055 0.013183594 0.071777344 0.14355469
grape 0.03857422 0.041992188 -0.084472656 0.12695312 0.15234375 0.080566406 0.19433594 -0.28320312 0.12695312 0.23828125 0.22753906 -0.20898438 -0.08984375 -0.055664062 -0.28710938 0.296875 -0.33984375 0.40625 0.05517578 0.08691406 -0.12695312 0.4765625 0.009216309 -0.17871094 -0.083496094 0.017211914 0.044677734 0.036865234 -0.07763672 -0.099121094 0.029541016 -0.059326172 -0.1796875 0.24902344 -0.25195312 0.14550781 0.16796875 -0.37695312 0.30078125 -0.125 0.16699219 0.0859375 -0.18847656 -0.119140625 -0.03149414 -0.36914062 0.087402344 0.08642578 -0.15722656 0.056152344 -0.546875 -0.055908203 -0.140625 -0.13085938 -0.19238281 0.032470703 -0.2421875 0.17480469 -0.06738281 -0.16699219 -0.28710938 0.055908203 -0.16601562 -0.18945312 -0.16601562 -0.115234375 0.13085938 -0.49023438 0.40429688 -0.07470703 0.10205078 -0.037841797 -0.20214844 -0.23632812 -0.11328125 0.11376953 -0.2734375 -0.28125 -0.15917969 0.01965332 -0.44921875 -0.0077209473 0.013427734 -0.20996094 0.012878418 0.03173828 -0.07714844 0.421875 -0.12207031 0.049316406 -0.06689453 -0.19335938 -0.08642578 -0.060302734 0.00062561035 0.009460449 -0.027709961 -0.07763672 0.03466797 -0.546875 -0.42382812 -0.3125 -0.09863281 0.111328125 -0.016357422 -0.020629883 -0.052490234 0.040039062 -0.328125 -0.3984375 -0.28125 -0.23339844 0.018066406 -0.18945312 0.10644531 0.375 -0.006866455 -0.24121094 -0.14941406 -0.06225586 -0.20410156 0.29101562 -0.107910156 -0.24804688 0.25 -0.16699219 -0.10253906 -0.0013656616 -0.044677734 0.22558594 -0.13476562 -0.17089844 -0.14550781 -0.07373047 0.15625 0.15234375 0.021850586 0.2734375 0.060546875 -0.042236328 0.05053711 -0.25585938 -0.23242188 -0.27929688 0.045898438 -0.05419922 0.31054688 0.453125 -0.3515625 -0.17480469 0.30273438 -0.12890625 -0.453125 0.15722656 -0.18359375 -0.17871094 0.01953125 -0.08886719 -0.29296875 -0.037353516 -0.05859375 -0.09082031 0.21386719 0.09082031 -0.057373047 -0.18847656 0.234375 0.072753906 -0.16503906 -0.12988281 -0.07373047 -0.0032348633 -0.087402344 0.032470703 -0.29296875 -0.28710938 0.15917969 0.025268555 -0.07324219 0.111816406 -0.15429688 -0.15136719 -0.41601562 0.23339844 -0.01171875 0.19140625 -0.03564453 0.22460938 -0.20507812 0.09326172 0.119140625 -0.024047852 -0.080078125 0.06347656 0.15917969 0.09326172 0.08886719 -0.07861328 0.061035156 -0.24707031 0.25976562 -0.0065612793 -0.068359375 -0.026855469 -0.19140625 0.08496094 0.28710938 0.23730469 0.036132812 -0.13183594 -0.33007812 0.0033874512 -0.068359375 0.07128906 0.016723633 0.05029297 -0.14941406 -0.06591797 0.31835938 0.5078125 0.19921875 -0.017211914 -0.15527344 -0.12695312 0.1875 0.19335938 0.21679688 0.28515625 0.07128906 0.4140625 0.020385742 -0.20214844 -0.13183594 0.3671875 -0.46289062 -0.32226562 -0.26367188 -0.16699219 0.28125 -0.10839844 0.25585938 -0.00011444092 0.12207031 0.2734375 0.2734375 -0.19921875 -0.038085938 -0.15722656 -0.15234375 0.23535156 -0.12890625 -0.51171875 0.11621094 -0.13867188 0.23535156 -0.13769531 0.016479492 -0.19628906 -0.059570312 -0.020507812 -0.13085938 0.036132812 -0.15429688 0.42578125 0.08544922 -0.118652344 -0.25 -0.07519531 -0.21484375 -0.24023438 -0.19726562 0.080566406 0.039794922 -0.0014953613 0.25585938 -0.09667969 0.06689453 -0.47265625 -0.15917969 0.22265625 -0.19433594 0.20214844 0.28320312 -0.24804688 -0.044677734 -0.10058594 -0.04736328 0.18554688 -0.06738281 0.44140625 0.11328125 -0.033691406 0.24902344 -0.021484375 0.21191406 0.15429688 0.14453125 0.27734375 0.20898438 0.24902344
desk -0.038085938 0.025146484 -0.34179688 0.05126953 -0.09667969 -0.25976562 0.060302734 0.20996094 0.50390625 0.20605469 0.13183594 -0.032714844 0.16308594 -0.30273438 0.12011719 0.007873535 0.028564453 -0.14941406 0.33984375 -0.14648438 0.24316406 0.008850098 0.13574219 -0.02722168 -0.0390625 -0.115722656 0.17773438 0.04663086 0.028442383 -0.055908203 -0.06591797 -0.08544922 -0.32226562 0.25 -0.19335938 -0.2734375 -0.030517578 0.21679688 0.049804688 -0.038085938 -0.24707031 -0.24804688 -0.13378906 -0.17871094 0.10644531 0.21386719 -0.14257812 0.07861328 0.06298828 -0.044677734 -0.2890625 -0.35742188 0.27539062 -0.0625 0.08691406 0.13769531 0.07421875 -0.042236328 -0.17382812 0.18164062 0.11328125 -0.092285156 -0.21289062 0.03112793 0.060546875 0.21777344 -0.18554688 0.028076172 -0.0546875 -0.09082031 0.45703125 0.0146484375 0.22851562 0.125 -0.31054688 0.13183594 0.23925781 0.006958008 -0.14355469 -0.059814453 0.15429688 0.084472656 -0.09082031 0.083984375 0.04321289 0.13867188 0.20019531 -0.106933594 0.18457031 0.19042969 -0.042236328 -0.18554688 -0.13476562 -0.33398438 -0.010864258 0.04663086 0.39648438 0.08984375 0.068847656 -0.24804688 -0.34960938 -0.3046875 0.24414062 -0.08691406 0.014221191 -0.09082031 0.06982422 -0.095703125 0.24316406 -0.14355469 0.017944336 -0.15722656 0.0036621094 -0.21875 0.15429688 0.20019531 -0.078125 0.10205078 0.2734375 -0.036132812 -0.28125 -0.21191406 0.10839844 0.38085938 0.08300781 -0.11669922 0.026367188 0.10058594 0.36914062 0.12011719 -0.016845703 -0.15429688 -0.16992188 -0.024291992 0.0053100586 0.091308594 -0.140625 0.24511719 -0.038330078 0.23339844 0.08300781 -0.25976562 -0.044677734 -0.15234375 -0.052734375 0.12597656 -0.25195312 -0.3984375 0.31640625 0.328125 0.50390625 0.38085938 0.061279297 0.37890625 0.024658203 -0.15234375 -0.328125 -0.080566406 -0.21875 0.12792969 -0.14257812 -0.055664062 -0.032958984 -0.08203125 0.16699219 0.068359375 -0.18164062 -0.088378906 -0.099121094 0.036376953 -0.11230469 0.15039062 0.12695312 -0.18457031 -0.23144531 -0.19433594 0.16113281 -0.26367188 0.12158203 0.049316406 -0.24511719 -0.044921875 0.051513672 -0.07910156 0.12988281 -0.08496094 -0.13574219 0.32421875 -0.0099487305 0.14746094 -0.043945312 -0.22070312 -0.044189453 -0.047607422 0.008056641 0.17089844 0.14941406 -0.265625 -0.00064468384 -0.12890625 -0.41601562 0.14550781 -0.13378906 0.17382812 0.109375 0.20410156 0.08300781 0.3515625 -0.15625 -0.14160156 -0.12988281 -0.32617188 -0.4453125 -0.171875 0.06689453 0.11669922 -0.19824219 0.20703125 -0.1328125 0.01953125 -0.09082031 -0.078125 -0.10839844 -0.020141602 -0.15820312 -0.11669922 -0.14453125 0.13671875 0.04638672 -0.31640625 0.20605469 0.06298828 -0.1328125 -0.28710938 -0.2578125 -0.11816406 -0.10986328 0.27148438 -0.032470703 -0.033691406 0.23535156 0.030395508 -0.083984375 -0.23535156 -0.02319336 -0.119140625 0.07373047 -0.03930664 -0.15820312 -0.1171875 -0.13769531 0.33203125 0.16308594 0.046875 -0.12402344 -0.23339844 -0.19921875 0.064453125 -0.063964844 0.10058594 0.063964844 -0.08984375 -0.24121094 -0.13671875 -0.00024795532 0.25 0.013549805 -0.14257812 -0.1875 -0.10986328 0.21191406 0.15039062 -0.18261719 -0.11669922 -0.21875 0.33984375 0.11035156 -0.099609375 -0.017456055 -0.12060547 0.018798828 0.09423828 0.140625 0.27148438 0.115722656 0.24707031 -0.33789062 -0.036621094 0.1328125 0.020507812 -0.16699219 0.027832031 0.19140625 0.07373047 0.07373047 0.21484375 0.017456055 0.08105469 -0.22363281 0.29101562
red 0.09716797 -0.08496094 0.27148438 0.22167969 -0.048095703 -0.17480469 -0.09472656 -0.37695312 -0.037109375 0.15917969 0.009033203 0.01550293 -0.024291992 -0.095214844 -0.3515625 -0.20800781 -0.29492188 0.16796875 -0.27929688 -0.32421875 0.09472656 0.060791016 -0.0625 -0.29492188 0.033203125 -0.022094727 0.119140625 0.015625 0.24804688 0.032226562 0.115234375 0.14160156 0.19921875 -0.11279297 -0.008300781 0.036865234 0.040527344 -0.030761719 -0.13183594 -0.03515625 0.076171875 -0.076660156 0.01586914 -0.13476562 0.19042969 -0.13574219 0.047607422 -0.16894531 0.087890625 0.13183594 -0.2109375 0.13867188 0.08886719 -0.056884766 -0.16796875 0.036376953 -0.017578125 -0.072753906 0.013061523 0.03149414 -0.16699219 -0.02355957 -0.16894531 -0.071777344 -0.09667969 0.18847656 -0.11328125 0.0027923584 0.0015106201 0.13867188 0.25195312 0.13378906 0.19238281 -0.19726562 0.032226562 0.0018615723 0.25976562 0.18066406 -0.1953125 0.3515625 0.14453125 -0.25195312 -0.011962891 -0.14453125 0.04321289 -0.0035247803 -0.24707031 0.080566406 0.11816406 -0.026489258 0.029174805 0.109375 -0.004272461 0.15917969 -0.12451172 0.018676758 0.07714844 0.076660156 0.018798828 0.171875 -0.013977051 -0.050048828 0.12597656 -0.007598877 -0.017456055 -0.18261719 0.359375 0.016723633 -0.09814453 -0.051513672 -0.007873535 -0.29101562 0.0054626465 0.19726562 0.2265625 0.02734375 0.091796875 0.15625 -0.04736328 0.24804688 -0.04296875 -0.12207031 -0.09423828 -0.08984375 0.017578125 0.037353516 0.024047852 0.12402344 0.22558594 -0.05493164 -0.052734375 -0.10888672 0.030273438 -0.115722656 0.008666992 0.092285156 -0.04711914 0.052490234 0.111328125 -0.038085938 -0.095703125 -0.15429688 -0.044189453 -0.02758789 0.23925781 0.18261719 0.017089844 -0.060302734 -0.037597656 -0.15820312 0.040039062 0.037353516 -0.18554688 0.0859375 -0.076660156 0.044677734 -0.11669922 -0.26367188 0.008850098 -0.038085938 -0.18945312 0.07714844 0.4453125 0.05493164 -0.103027344 -0.031982422 0.23144531 -0.08496094 -0.00032234192 -0.109375 -0.19140625 -0.046142578 -0.06982422 0.15332031 -0.22265625 0.024169922 -0.076171875 0.018676758 0.01953125 -0.25585938 -0.041503906 -0.109375 -0.16992188 0.095214844 -0.0012435913 -0.12158203 0.012023926 -0.046142578 -0.13964844 0.02331543 -0.035888672 -0.21582031 -0.15625 -0.18457031 0.15234375 0.20605469 0.05126953 -0.06738281 0.037353516 0.015991211 0.14941406 -0.091796875 0.03149414 -0.11279297 0.49414062 -0.056640625 -0.07519531 0.03540039 -0.053222656 -0.171875 -0.111816406 -0.029541016 -0.010192871 0.053222656 0.01184082 0.17480469 0.25585938 -0.07421875 -0.23828125 0.07861328 -0.17480469 0.048828125 -0.060546875 0.13183594 -0.24707031 -0.057861328 0.04736328 0.057373047 0.11767578 -0.10644531 0.13085938 -0.068359375 0.03149414 0.12011719 -0.22363281 -0.234375 -0.083496094 -0.15039062 0.18457031 -0.076171875 0.35742188 -0.123535156 -0.14160156 0.12451172 -0.049560547 -0.09277344 0.07763672 -0.087890625 0.15039062 -0.055664062 0.008300781 -0.0234375 0.21484375 0.03125 -0.028320312 -0.27929688 -0.14746094 -0.060058594 0.0126953125 0.088378906 -0.0049743652 0.037353516 0.15234375 0.033691406 0.104003906 -0.056640625 -0.18066406 0.09863281 0.11376953 -0.16308594 0.2265625 0.056396484 -0.19433594 -0.02319336 0.08105469 0.05517578 -0.11621094 -0.43945312 -0.12890625 0.22753906 0.16015625 0.3515625 0.33789062 -0.060302734 -0.0077209473 0.1171875 0.03930664 -0.05834961 -0.1015625 -0.37304688 0.08935547 -0.14550781 -0.12402344 0.016357422 0.13671875 -0.025390625 0.048095703 0.046142578 0.14746094 0.14355469
table -0.14453125 -0.026489258 0.11767578 0.21386719 -0.042236328 -0.025146484 0.12207031 -0.20410156 0.036621094 0.265625 -0.08154297 -0.16699219 0.2109375 -0.08105469 -0.10498047 0.20898438 0.10449219 -0.050048828 0.20800781 -0.055664062 0.20996094 0.13964844 -0.14648438 -0.06982422 0.061035156 0.1484375 -0.1875 0.04321289 -0.114746094 -0.064453125 -0.22460938 0.15527344 0.0066223145 0.14257812 -0.043701172 -0.111328125 -0.11767578 0.20507812 -0.087890625 -0.20996094 -0.072753906 -0.15136719 0.06640625 -0.07080078 0.19433594 -0.04736328 -0.0035247803 0.025390625 0.13574219 0.087402344 -0.24023438 -0.017578125 -0.087402344 -0.38867188 -0.13183594 -0.09472656 0.20996094 -0.0051879883 0.16699219 0.035888672 -0.31054688 -0.125 -0.4140625 -0.007385254 0.10058594 -0.0546875 -0.046142578 -0.064941406 0.14453125 -0.13378906 0.25976562 -0.21386719 0.265625 0.18652344 -0.049072266 -0.16699219 -0.076660156 0.048339844 0.096191406 0.0005264282 0.122558594 -0.35742188 0.037841797 0.110839844 0.25976562 -0.037597656 0.12451172 0.067871094 0.08496094 -0.068359375 0.19628906 -0.018066406 -0.24023438 -0.21679688 -0.13964844 -0.1875 0.123046875 -0.24121094 -0.1484375 -0.2109375 -0.20605469 -0.17773438 -0.09863281 -0.13476562 -0.11230469 -0.008544922 0.08105469 -0.080078125 0.06298828 -0.072265625 -0.15332031 -0.040771484 0.23339844 -0.20800781 -0.09082031 -0.041992188 0.25 -0.12695312 -0.064941406 0.016967773 -0.060302734 -0.0064697266 0.15820312 0.11230469 -0.3515625 -0.19433594 -0.10058594 -0.1328125 -0.07861328 -0.03149414 0.31640625 -0.07519531 -0.16015625 -0.08251953 -0.2109375 0.25 0.0021209717 -0.015625 -0.12011719 0.19335938 -0.03564453 -0.12890625 0.203125 -0.1015625 0.056884766 0.35742188 -0.32226562 -0.33203125 0.08105469 0.22851562 0.061279297 0.09082031 -0.025634766 0.100097656 0.017089844 -0.05859375 -0.010070801 -0.22167969 0.055908203 0.05517578 -0.20898438 -0.06933594 0.040527344 -0.19238281 0.14453125 -0.13671875 -0.072753906 0.067871094 -0.15429688 -0.007659912 -0.265625 -0.15136719 0.10644531 -0.038330078 0.018920898 -0.20507812 -0.07373047 0.03955078 0.07373047 0.110839844 -0.25585938 0.17382812 0.16894531 0.059814453 0.08691406 0.043945312 -0.17871094 0.22167969 -0.024047852 -0.11425781 0.27734375 -0.029541016 -0.001083374 -0.06225586 0.0859375 0.140625 -0.21875 -0.037841797 -0.13476562 -0.37890625 -0.33789062 0.17578125 -0.15234375 -0.07714844 0.014953613 0.0703125 0.057128906 0.21386719 -0.18457031 0.030273438 -0.15039062 0.04638672 -0.21582031 -0.036132812 -0.044677734 0.049316406 -0.0703125 0.29101562 0.078125 0.16308594 -0.25585938 0.23730469 -0.15722656 0.08544922 -0.14160156 -0.009338379 -0.030029297 -0.046875 0.28320312 0.068847656 0.22558594 -0.16308594 0.091796875 0.083496094 -0.12695312 -0.10888672 0.056152344 0.3671875 0.13476562 0.111816406 -0.060791016 -0.05029297 0.05102539 0.018676758 0.00047683716 0.13183594 0.22070312 -0.11328125 -0.1640625 -0.04711914 -0.0625 0.27539062 -0.017456055 -0.25390625 -0.24511719 -0.29882812 -0.29492188 -0.09326172 -0.09082031 0.031982422 0.024780273 -0.12792969 -0.16210938 -0.15625 -0.19628906 0.20800781 -0.22070312 0.061279297 -0.2578125 -0.21875 0.13671875 0.27929688 -0.05078125 0.021972656 -0.024536133 0.41210938 0.14941406 -0.23632812 -0.084472656 -0.033447266 0.05126953 0.018066406 0.026733398 0.30664062 0.0033874512 0.04272461 -0.13476562 0.24121094 -0.008056641 0.0030212402 -0.031982422 -0.071777344 -0.123046875 -0.017700195 0.0041503906 -0.076660156 0.06982422 -0.095214844 -0.09814453 -0.012268066
apple -0.064453125 -0.16015625 -0.012084961 0.13476562 -0.22949219 0.16210938 0.3046875 -0.1796875 -0.12109375 0.25390625 -0.014282227 -0.063964844 -0.080566406 -0.056884766 -0.19628906 0.2890625 -0.051513672 0.14257812 -0.10498047 -0.04736328 -0.34765625 0.35742188 0.265625 0.0018844604 -0.01586914 0.001953125 -0.35546875 0.22167969 0.057617188 0.15917969 0.08691406 -0.026733398 -0.047851562 0.23925781 -0.059814453 0.037841797 0.17382812 -0.41796875 0.2890625 0.32617188 0.024291992 -0.016479492 -0.064941406 -0.08886719 0.076660156 -0.15136719 0.052490234 -0.041992188 -0.05419922 0.001083374 -0.20117188 0.123046875 0.092285156 0.10449219 -0.0040893555 -0.041992188 0.014099121 -0.021118164 -0.13476562 -0.24316406 0.16015625 -0.06689453 -0.08984375 -0.071777344 -0.0059509277 -0.0048217773 -0.00089263916 -0.30664062 -0.0625 0.079589844 -0.009094238 -0.044921875 0.099609375 -0.33398438 -0.3984375 0.055419922 -0.06689453 -0.044677734 0.11767578 -0.13964844 -0.26367188 0.17480469 -0.17382812 -0.40625 -0.06738281 -0.076171875 0.09423828 0.20996094 -0.16308594 -0.08691406 -0.053466797 -0.103515625 -0.076171875 -0.110839844 -0.03515625 -0.14941406 0.037841797 0.38671875 0.14160156 -0.2890625 -0.16894531 -0.140625 -0.041748047 0.22753906 0.24023438 -0.015991211 -0.067871094 0.21875 -0.42382812 -0.5625 -0.49414062 -0.3359375 0.13378906 0.011413574 0.13671875 0.032470703 0.068359375 -0.27539062 -0.15917969 0.0012130737 0.012084961 -0.0039978027 0.004425049 -0.045410156 0.08642578 0.099609375 -0.04296875 -0.11328125 0.13867188 0.41796875 -0.28320312 -0.07373047 -0.11425781 0.08691406 -0.021484375 0.328125 -0.07373047 -0.0134887695 0.17773438 -0.026245117 0.13378906 -0.111328125 -0.12792969 -0.12792969 0.18945312 -0.13867188 0.29882812 -0.07714844 -0.37695312 -0.103515625 0.16992188 -0.107421875 -0.29882812 0.008666992 -0.27734375 -0.20996094 -0.1796875 -0.19628906 -0.22167969 0.08886719 -0.27734375 -0.13964844 0.15917969 0.036376953 0.033203125 -0.08105469 0.25390625 -0.08691406 -0.21289062 -0.18945312 -0.22363281 0.06542969 -0.16601562 0.088378906 -0.359375 -0.09863281 0.35546875 -0.0074157715 0.19042969 0.16992188 -0.060058594 -0.20605469 0.08105469 0.12988281 -0.011352539 0.33203125 -0.08691406 0.27539062 -0.032714844 0.12011719 -0.0625 0.1953125 -0.10986328 -0.11767578 0.20996094 0.19921875 0.029541016 -0.16015625 0.0027618408 -0.013671875 0.034423828 -0.19335938 0.0035247803 -0.06542969 -0.055664062 0.09423828 0.29296875 0.040527344 -0.09326172 -0.10107422 -0.27539062 0.043945312 -0.072753906 0.13867188 0.023803711 0.13085938 0.0023651123 -0.2265625 0.34765625 0.13574219 0.052246094 0.18164062 0.040283203 0.23730469 -0.16992188 0.10058594 0.038330078 0.10839844 -0.056152344 -0.009460449 0.14550781 -0.30078125 -0.32226562 0.18847656 -0.40234375 -0.3125 -0.080078125 -0.26757812 0.16699219 0.07324219 0.06347656 0.06591797 0.17285156 -0.17773438 0.0027618408 -0.057617188 -0.2265625 -0.19628906 0.09667969 0.13769531 -0.49414062 -0.27929688 0.123046875 -0.30078125 0.012939453 -0.1875 -0.20898438 -0.1796875 -0.16015625 -0.032958984 0.009765625 0.25390625 -0.25195312 0.002105713 0.04296875 0.01184082 -0.20605469 0.24804688 -0.203125 -0.17773438 0.072753906 0.045410156 0.21679688 -0.2109375 0.14550781 -0.16210938 0.20410156 -0.19628906 -0.35742188 0.35742188 -0.119628906 0.35742188 0.103515625 0.07080078 -0.24707031 -0.10449219 -0.19238281 0.1484375 0.000579834 0.296875 -0.12695312 -0.039794922 0.13183594 -0.16601562 0.125 0.05126953 -0.14941406 0.13671875 -0.020751953 0.34375
boulder 0.16601562 0.22851562 -0.00390625 0.17578125 0.11621094 -0.19628906 0.21875 -0.25585938 0.16601562 0.00075149536 0.083496094 -0.10205078 0.076660156 0.09765625 -0.049804688 -0.24511719 -0.26953125 0.21289062 -0.020629883 -0.11328125 -0.3125 0.14453125 -0.12109375 -0.171875 -0.16015625 -0.39648438 0.043945312 -0.006866455 0.24609375 -0.47070312 -0.048828125 -0.1171875 0.016723633 -0.15722656 -0.14160156 -0.21191406 0.22363281 0.2734375 0.17773438 -0.017944336 -0.091796875 -0.057373047 0.4765625 -0.08984375 -0.19433594 -0.057861328 -0.26171875 0.1875 0.22167969 -0.29492188 -0.17089844 -0.06689453 0.109375 -0.08300781 0.19824219 0.296875 0.38476562 0.020507812 -0.075683594 -0.096191406 -0.18945312 -0.14160156 0.1796875 -0.14453125 -0.22460938 -0.21386719 0.30078125 -0.34570312 0.0039978027 0.099609375 -0.27929688 -0.28125 -0.140625 -0.18652344 0.08496094 -0.09277344 0.06738281 -0.171875 -0.16210938 -0.26171875 0.24609375 0.15332031 -0.1640625 -0.47851562 -0.061035156 0.05859375 -0.106933594 -0.41601562 0.10058594 -0.030761719 -0.25390625 0.00015258789 0.39453125 0.053710938 0.07910156 0.1328125 0.14648438 -0.41015625 0.3203125 -0.30859375 -0.03125 -0.08544922 0.2890625 -0.19921875 0.36132812 0.16015625 -0.022216797 -0.17480469 0.08886719 -0.004699707 -0.35742188 -0.234375 0.48242188 -0.375 0.40234375 0.08154297 0.1875 0.06640625 0.0115356445 0.265625 -0.04272461 0.17382812 0.0026550293 0.33984375 0.10888672 0.0390625 0.20410156 -0.11621094 -0.119628906 -0.006713867 -0.23730469 0.1953125 -0.16992188 0.026733398 -0.011169434 0.11230469 -0.18261719 -0.21777344 -0.022705078 0.58203125 -0.07519531 -0.30273438 0.12011719 -0.052246094 0.16699219 0.07470703 -0.10058594 -0.18261719 -0.26953125 0.037109375 0.19824219 -0.21484375 -0.26757812 0.28710938 -0.14746094 0.111816406 -0.15234375 0.1015625 -0.10449219 0.15917969 0.0703125 -0.056640625 0.35742188 0.004333496 -0.092285156 -0.22460938 0.25195312 -0.17773438 -0.36132812 0.3359375 0.13769531 -0.029052734 -0.13183594 0.4765625 -0.056884766 -0.38476562 0.052734375 0.118652344 -0.14746094 0.390625 -0.30078125 -0.140625 -0.08642578 -0.09667969 0.061767578 0.31835938 0.21289062 0.08544922 0.021606445 -0.010437012 0.12890625 0.00061416626 -0.38476562 0.13574219 -0.033691406 0.17480469 -0.09716797 -0.17089844 0.011169434 0.06591797 0.28125 -0.08300781 -0.47460938 -0.06640625 -0.1796875 -0.16796875 0.24511719 0.2265625 0.07861328 0.125 -0.27929688 0.060791016 -0.2578125 -0.18554688 -0.17773438 -0.087402344 0.036865234 -0.034423828 -0.13964844 0.14257812 0.119628906 -0.23730469 0.32421875 0.09716797 -0.045166016 0.07373047 0.19042969 0.01928711 -0.055419922 0.084472656 -0.18457031 -0.064941406 -0.13085938 -0.032226562 0.076660156 0.29882812 0.07519531 -0.017211914 -0.10595703 0.15820312 -0.18554688 -0.20800781 -0.119140625 -0.3046875 0.059326172 -0.20117188 -0.1015625 0.25585938 -0.36328125 -0.19238281 -0.125 -0.18066406 -0.03125 0.23046875 0.25976562 0.12011719 -0.47265625 -0.31640625 -0.171875 -0.265625 0.021850586 -0.16894531 -0.18261719 0.063964844 -0.044921875 0.58984375 -0.11425781 0.26757812 -0.13476562 0.0012130737 -0.27929688 0.13085938 0.26953125 -0.045654297 0.18359375 0.23242188 0.16601562 -0.18847656 -0.035888672 -0.14941406 -0.052978516 0.20117188 0.33007812 -0.109375 -0.21289062 -0.24609375 -0.45117188 0.11279297 0.21777344 0.1875 -0.13671875 0.27734375 -0.26171875 -0.12695312 0.08105469 -0.046875 0.051513672 0.104003906 -0.15136719 -0.16503906
denver -0.27734375 -0.15332031 0.032714844 0.23535156 -0.052001953 -0.107421875 -0.22167969 -0.043945312 -0.12597656 0.10595703 -0.36328125 -0.41796875 -0.26367188 0.0068969727 0.16699219 0.028686523 -0.09277344 -0.10644531 0.026245117 -0.19140625 -0.3046875 -0.30273438 0.13769531 0.05102539 -0.3203125 0.114746094 -0.21289062 0.203125 -0.08154297 -0.123535156 0.16796875 -0.10644531 0.06201172 -0.26367188 -0.11816406 0.3203125 -0.13574219 -0.16992188 0.390625 0.057373047 -0.15429688 -0.31445312 0.13476562 0.12402344 -0.140625 0.125 0.13867188 -0.22558594 0.017822266 0.3125 -0.049316406 0.010620117 0.011657715 2.9444695e-05 -0.08203125 -0.12402344 0.072753906 0.13183594 0.079589844 0.03955078 -0.15820312 -0.09863281 -0.12890625 0.036376953 -0.10498047 -0.47265625 -0.035888672 -0.41210938 0.22265625 0.31054688 0.33203125 0.25976562 -0.007537842 -0.017822266 -0.41992188 -0.13964844 0.14453125 0.00038909912 -0.07519531 0.063964844 0.02758789 0.009277344 -0.032226562 -0.32421875 0.15039062 0.22070312 0.049072266 0.018188477 -0.078125 0.1953125 0.020751953 0.015380859 -0.140625 -0.27148438 -0.013366699 0.25585938 -0.016235352 -0.037353516 0.24902344 0.42382812 -0.014282227 0.0065307617 0.23242188 0.21289062 0.08544922 0.043945312 -0.18847656 0.09863281 0.06640625 -0.040039062 -0.00037956238 0.051757812 -0.067871094 -0.15234375 0.02758789 -0.083496094 0.16308594 -0.29882812 0.044189453 -0.0234375 -0.13476562 -0.16894531 -0.02734375 -0.22070312 0.48046875 -0.072753906 -0.19042969 0.119140625 -0.07080078 -0.18554688 -0.040283203 -0.27539062 0.32617188 0.20800781 0.057861328 0.0031585693 -0.39257812 -0.08105469 0.04296875 0.24707031 0.33203125 -0.4375 0.083496094 -0.27539062 0.07519531 -0.027954102 -0.075683594 -0.25585938 -0.0051574707 -0.3671875 0.546875 -0.033935547 -0.25585938 -0.106933594 -0.088378906 -0.19824219 0.122558594 0.10058594 -0.34765625 0.23144531 0.25 0.13769531 -0.15625 0.009887695 0.048095703 -0.25 0.096191406 -0.22363281 -0.26953125 0.111816406 -0.33398438 -0.08544922 0.18945312 0.047607422 -0.063964844 0.12988281 -0.018310547 -0.25 0.11035156 -0.17480469 0.171875 0.036132812 0.05078125 -0.296875 -0.2578125 0.17382812 -0.25585938 -0.016235352 0.28125 -0.0033874512 0.27148438 0.28515625 -0.25195312 -0.07373047 0.22265625 0.13476562 -0.19628906 0.030029297 0.056884766 -0.1328125 -0.33984375 0.16015625 0.06982422 -0.23730469 -0.1015625 0.017700195 0.29882812 -0.23632812 -0.13964844 0.3359375 -0.024536133 0.11767578 -0.26757812 -0.16015625 -0.35351562 0.33398438 0.080078125 0.08886719 -0.043945312 -0.11035156 -0.13769531 0.07324219 0.107421875 0.07373047 -0.015258789 -0.06640625 -0.03125 0.10595703 -0.3046875 -0.123535156 0.125 0.018188477 -0.064453125 0.03491211 0.048828125 0.41796875 -0.09472656 0.01965332 -0.10546875 0.06347656 0.19726562 0.05493164 0.110839844 -0.029907227 -0.01171875 0.09863281 -0.30078125 0.25976562 -0.15234375 -0.13769531 0.2734375 0.27734375 0.21191406 0.25 0.38085938 -0.10839844 -0.032226562 -0.06201172 0.11669922 -0.118652344 0.26953125 0.23046875 0.34960938 -0.084472656 0.15527344 -0.034179688 0.022949219 0.024291992 0.024658203 -0.119140625 -0.15234375 0.099121094 0.3125 0.026123047 0.107910156 -0.068847656 0.07128906 -0.09472656 -0.43359375 0.18164062 -0.07421875 -0.006958008 0.045410156 0.19921875 -0.29101562 -0.0026397705 -0.084472656 0.037109375 -0.1328125 -0.14941406 0.24609375 0.064941406 0.296875 0.13867188 0.035888672 -0.2578125 -0.11669922 -0.30273438 0.13378906 0.09033203
sofa 0.23144531 -0.16210938 0.12792969 0.29882812 0.40234375 -0.032470703 0.12451172 -0.119140625 0.36523438 0.17382812 -0.14550781 -0.2265625 0.046142578 -0.018310547 -0.34375 -0.0234375 -0.083496094 0.033203125 0.119628906 0.06689453 0.17285156 0.024536133 0.056396484 0.01940918 0.13085938 0.015991211 -0.057861328 0.21582031 -0.13085938 -0.26171875 -0.15917969 0.21386719 -0.14453125 0.11767578 -0.3515625 -0.359375 0.048339844 0.12158203 -0.22753906 -0.038330078 -0.45898438 -0.13964844 0.19140625 -0.02746582 0.20800781 0.14453125 -0.16015625 -0.01574707 0.171875 -0.15332031 0.02709961 0.13671875 0.15625 -0.13964844 0.027832031 -0.07519531 0.08496094 0.045166016 -0.021484375 0.17089844 -0.107910156 0.15429688 -0.37109375 0.21386719 0.053222656 0.171875 -0.31445312 -0.14453125 -0.02368164 0.15332031 0.4296875 -0.0058898926 0.0067443848 0.1640625 -0.22558594 -0.11621094 0.038330078 -0.17480469 0.056396484 -0.31835938 0.080566406 0.011047363 0.0018997192 0.09326172 -0.053222656 0.123535156 0.3359375 0.12890625 0.16796875 0.084472656 -0.08105469 -0.07324219 -0.016113281 -0.07910156 -0.10644531 -0.13183594 0.28125 -0.12109375 0.12207031 -0.22363281 -0.018798828 -0.27148438 0.29296875 -0.111816406 -0.30664062 -0.08935547 0.30273438 0.015075684 0.010192871 -0.14648438 -0.11621094 -0.057128906 0.32226562 -0.24902344 0.16308594 -0.20410156 -0.10107422 0.083984375 0.010192871 0.18652344 -0.08154297 -0.052978516 0.04248047 -0.050048828 -0.17773438 -0.13964844 -0.06225586 0.00036239624 -0.040039062 0.18457031 0.022338867 0.122558594 -0.3515625 0.29101562 -0.08203125 0.32617188 -0.14746094 0.09375 0.040039062 0.09033203 0.13085938 -0.0023651123 -0.0029144287 -0.12011719 0.03173828 0.13378906 -0.107910156 0.08300781 -0.03173828 0.17871094 0.34960938 0.3125 0.123535156 -0.084472656 0.18457031 -0.024414062 -0.30273438 -0.17382812 -0.110839844 0.068847656 -0.16015625 0.14355469 0.30273438 -0.12695312 0.109375 0.18652344 0.13964844 0.12890625 -0.099121094 0.20898438 -0.0028381348 -0.032226562 -0.25585938 0.06542969 -0.15527344 -0.2109375 0.3671875 -0.12207031 -0.033203125 0.4296875 -0.15917969 -0.09863281 0.09472656 -0.14746094 0.21777344 -0.006591797 -0.15527344 0.19238281 0.19433594 -0.34960938 0.25390625 -0.35546875 -0.038085938 0.23730469 0.21582031 0.34765625 0.09082031 -0.08496094 -0.13085938 -0.13378906 -0.3203125 -0.018798828 -0.36914062 0.059814453 0.22070312 -0.034179688 -0.00030708313 0.23144531 -0.064453125 0.067871094 -0.45507812 0.14648438 -0.4453125 0.05859375 0.21777344 -0.30859375 -0.19042969 0.26367188 -0.20117188 0.21875 -0.24316406 0.095214844 0.026855469 0.30273438 -0.18945312 0.096191406 0.15917969 0.010314941 0.052490234 -0.07421875 -0.09863281 -0.107421875 0.024169922 -0.17871094 -0.11279297 0.2734375 0.09667969 0.15722656 -0.080078125 0.0037384033 0.20898438 -0.26953125 -0.0014953613 -0.09033203 -0.0703125 0.22167969 0.14257812 0.07373047 -0.0703125 -0.25 0.031982422 0.111328125 0.13183594 0.20898438 -0.20800781 0.092285156 -0.39453125 0.265625 0.13964844 -0.038330078 0.028076172 0.11035156 -0.118652344 -0.09082031 -0.07373047 0.32617188 -0.10546875 -0.11230469 -0.25976562 0.025634766 -0.27539062 0.4296875 0.0024719238 0.08203125 -0.0040893555 0.23144531 0.044189453 0.1484375 0.0032958984 -0.20117188 0.14648438 -0.024169922 0.18554688 -0.16699219 0.30664062 0.05126953 -0.22070312 -0.17578125 0.10839844 0.3671875 -0.29882812 0.18359375 -0.08886719 -0.049560547 0.22265625 -0.38867188 0.17089844 0.10107422 0.13964844 0.08642578
banana -0.08544922 0.04711914 -0.06933594 0.30273438 -0.1875 -0.031982422 0.029541016 -0.20507812 -0.09033203 0.29882812 0.2109375 -0.068847656 0.047607422 0.05834961 -0.27539062 0.2421875 -0.32226562 0.04736328 -0.14453125 0.09375 0.0067443848 0.21777344 0.23144531 0.1875 0.08496094 -0.053955078 -0.265625 0.022338867 0.22460938 0.41210938 -0.023071289 -0.16796875 0.010192871 0.2109375 0.011413574 0.25 0.08642578 -0.21679688 0.08935547 0.15039062 -0.203125 -0.23046875 0.14257812 0.13476562 -0.11376953 -0.18066406 0.035888672 -0.16992188 0.15527344 0.23925781 -0.23046875 -0.099609375 0.18261719 -0.18164062 -0.14648438 -0.0703125 0.09375 -0.26757812 0.021728516 -0.14550781 -0.023803711 0.15332031 -0.09814453 -0.016967773 0.050048828 -0.30859375 -0.30078125 -0.3203125 0.118652344 -0.12890625 0.1796875 0.087402344 -0.014892578 -0.09716797 -0.5625 0.025024414 -0.20898438 -0.23339844 -0.09863281 -0.022216797 -0.11328125 0.11767578 -0.15625 -0.103515625 0.06225586 -0.20410156 0.02758789 0.2578125 -0.18945312 -0.06298828 -0.29492188 0.1640625 0.00022125244 -0.140625 -0.024536133 -0.06738281 -0.047607422 0.025756836 0.29296875 -0.044189453 -0.2265625 -0.030761719 0.036621094 0.10058594 -0.08105469 0.07763672 0.19433594 -0.10986328 -0.25976562 -0.14160156 -0.26757812 -0.23925781 -0.234375 0.06591797 -0.296875 -0.012268066 0.14453125 -0.23828125 0.023803711 0.028198242 -0.05126953 -0.10644531 -0.12207031 -0.23339844 -0.17578125 0.12402344 0.01940918 -0.10888672 0.119628906 0.37304688 -0.24804688 -0.13867188 -0.13378906 -0.265625 -0.27148438 0.26757812 -0.052246094 0.046875 0.14257812 -0.2578125 -0.14648438 -0.40234375 -0.079589844 0.033935547 0.10644531 0.08642578 0.10058594 0.063964844 -0.16992188 0.26757812 0.048583984 -0.19042969 -0.32226562 0.103027344 0.041992188 -0.006378174 -0.19628906 -0.104003906 0.10449219 -0.16894531 -0.31445312 0.002166748 0.12792969 0.091796875 -0.12597656 -0.0021209717 0.19433594 -0.14257812 -0.15625 -0.05444336 -0.091308594 0.15234375 -0.025512695 -0.23828125 -0.4140625 -0.19921875 0.17382812 -0.08251953 0.068847656 0.26953125 -0.091796875 -0.08105469 -0.24511719 0.25390625 -0.0019683838 0.05053711 0.04663086 0.026367188 0.22363281 -0.18945312 0.104003906 -0.028076172 0.040039062 -0.20703125 0.40625 0.44921875 -0.033203125 -0.22460938 -0.12890625 -0.028686523 0.20898438 -0.21875 0.060791016 0.125 0.043701172 0.071777344 0.03149414 0.123535156 -0.008239746 -0.04321289 -0.23144531 0.07373047 -0.15136719 0.15234375 0.20800781 -0.16308594 -0.22070312 -0.296875 0.14648438 0.31640625 0.09472656 -0.0703125 -0.20605469 -0.030639648 -0.12207031 -0.24707031 0.091308594 0.122558594 0.41015625 0.122558594 0.038085938 -0.08642578 -0.04272461 0.041259766 -0.13085938 -0.111328125 -0.01159668 -0.16015625 0.26367188 0.053710938 0.03112793 -0.25390625 0.061279297 0.05029297 0.036865234 -0.28320312 -0.36328125 0.027832031 0.12890625 -0.18554688 -0.103515625 -0.12988281 0.36914062 -0.13183594 -0.042236328 -0.3984375 0.010864258 -0.1953125 -0.14941406 -0.049560547 -0.07910156 0.25 -0.20507812 0.265625 -0.011962891 -0.13769531 -0.17382812 0.3359375 -0.12890625 -0.25585938 -0.18945312 0.16113281 0.22363281 -0.10888672 -0.008056641 0.18261719 -0.19042969 -0.016967773 -0.068359375 0.3046875 0.1796875 0.16503906 0.05859375 -0.10205078 0.06689453 -0.076171875 -0.33398438 0.06347656 -0.09765625 0.171875 -0.17773438 -0.08251953 0.03857422 -0.29492188 0.0055236816 0.05444336 -0.09472656 0.12695312 0.1171875 0.17773438
blue 0.0390625 0.08642578 0.22363281 0.118652344 -0.08642578 -0.25 0.005584717 -0.24511719 0.059814453 0.030273438 0.110839844 0.100097656 -0.008422852 -0.024047852 -0.328125 -0.12597656 -0.20507812 0.28710938 -0.22265625 -0.24902344 -0.056396484 0.16796875 -0.115722656 -0.39453125 -0.15332031 0.075683594 -0.10986328 0.09423828 0.14941406 -0.13378906 0.0703125 0.111816406 0.16992188 -0.028686523 0.07128906 -0.03955078 0.125 0.09765625 -0.20605469 0.057373047 0.16894531 -0.0625 -0.020507812 -0.21289062 0.23242188 0.020996094 -0.06591797 -0.14941406 0.10986328 0.14160156 -0.107910156 0.171875 0.14941406 0.026855469 0.103027344 -0.052246094 -0.023925781 -0.09716797 -0.119628906 -0.12597656 -0.28710938 0.119140625 -0.03881836 -0.010009766 0.119628906 0.046875 -0.31445312 0.13085938 -0.0025177002 0.25195312 0.234375 0.19238281 0.03112793 -0.13183594 -0.083984375 -0.08300781 0.24414062 0.12597656 -0.15625 0.41015625 0.32226562 -0.1953125 -0.05053711 -0.21191406 0.030273438 -0.05102539 -0.20507812 -0.1328125 0.10839844 -0.0859375 -0.1171875 0.13769531 -0.033935547 0.16503906 -0.016967773 0.18066406 0.08496094 0.122558594 0.068847656 0.27929688 0.011474609 -0.11328125 0.19238281 -0.0063171387 -0.09814453 -0.13574219 0.49609375 -0.003692627 -0.10498047 -0.045410156 0.031982422 0.021362305 -0.087402344 0.18847656 0.16308594 0.14550781 -0.06298828 0.12060547 0.0064086914 0.09375 0.13085938 -0.20507812 -0.026245117 -0.15429688 0.14648438 0.059814453 -0.011962891 0.05883789 0.21777344 0.21875 -0.05810547 0.10644531 0.045654297 0.16308594 -0.029541016 0.092285156 -0.1640625 0.030395508 0.08984375 0.05883789 0.14550781 -0.020874023 0.00982666 0.06738281 0.12402344 0.16796875 0.037109375 -0.042236328 0.003692627 -0.13964844 0.17089844 0.07519531 -0.2265625 0.08691406 0.14355469 -0.056396484 -0.06738281 -0.041259766 -0.16308594 0.11425781 -0.234375 0.013183594 0.359375 0.041015625 -0.021850586 -0.078125 0.10986328 -0.14257812 -0.123535156 0.07861328 -0.030151367 0.0625 -0.20214844 0.2421875 -0.20019531 -0.034179688 0.09033203 -0.16796875 -0.14453125 -0.22851562 -0.123046875 -0.04248047 -0.15136719 0.12695312 -0.24804688 -0.18164062 0.10546875 0.02722168 0.03173828 -0.0052490234 -0.025268555 -0.11621094 0.00065231323 0.014404297 0.17773438 0.22949219 0.07714844 0.076660156 -0.01586914 0.019042969 0.07714844 -0.08886719 -0.052490234 -0.3046875 0.30273438 0.019042969 0.12060547 -0.020263672 -0.18457031 -0.104003906 0.01928711 -0.043945312 -0.057861328 0.015319824 0.084472656 0.009216309 0.2890625 -0.18066406 -0.26171875 0.0063171387 -0.2109375 0.045898438 0.103515625 0.22851562 -0.20605469 -0.1953125 0.16796875 0.26171875 -0.07421875 -0.20117188 0.14941406 -0.031982422 0.19726562 0.018432617 -0.057373047 -0.15917969 -0.15820312 -0.16601562 0.28125 -0.00970459 0.19433594 -0.103027344 -0.09033203 0.044921875 -0.0018310547 0.032470703 0.07080078 -0.030029297 0.10058594 0.044433594 -0.099609375 -0.0032958984 0.34765625 0.25976562 -0.052978516 -0.27734375 -0.18847656 0.08251953 -0.06933594 0.055664062 0.09765625 -0.091308594 -0.063964844 0.008239746 0.18164062 0.08935547 -0.076660156 -0.042236328 0.06640625 -0.12011719 0.13574219 -0.06201172 -0.13769531 0.04296875 0.06347656 0.09082031 -0.12597656 -0.29101562 -0.060546875 0.28320312 -0.067871094 0.11230469 0.33203125 0.037109375 0.12011719 -0.03149414 0.14257812 -0.118652344 -0.21191406 -0.2265625 0.051513672 -0.14746094 -0.104003906 0.004333496 0.16894531 -0.11328125 0.19238281 0.04663086 0.022583008 -0.15722656
